<?xml version="1.0"?>
<opencv_storage>
<opencv_ml_svm>
  <format>3</format>
  <svmType>C_SVC</svmType>
  <kernel>
    <type>LINEAR</type></kernel>
  <C>1.</C>
  <term_criteria><iterations>4000</iterations></term_criteria>
  <var_count>1764</var_count>
  <class_count>4</class_count>
  <class_labels type_id="opencv-matrix">
    <rows>4</rows>
    <cols>1</cols>
    <dt>i</dt>
    <data>
      2 3 4 5</data></class_labels>
  <sv_total>6</sv_total>
  <support_vectors>
    <_>
      -8.50954838e-03 -4.28652717e-03 2.58657965e-03 -5.07609174e-03
      -6.11860072e-03 -6.16741483e-04 9.85676423e-03 2.40689190e-03
      9.30840150e-03 -1.21646235e-02 4.40990878e-03 6.66237855e-03
      6.79407269e-04 -3.13386880e-03 -6.72250462e-04 -1.39010997e-04
      2.26901518e-03 -4.05927934e-03 3.89429857e-03 3.72856180e-03
      1.29715749e-03 -1.98821654e-03 -1.87143043e-04 -1.73190248e-03
      1.16696600e-02 4.20383224e-03 -1.03470404e-04 3.55471479e-04
      4.97899810e-03 7.82857556e-03 -2.30081473e-03 -4.33533592e-03
      9.95271094e-03 5.57718007e-03 2.79244781e-03 -6.36428304e-04
      -1.05610238e-02 -3.36492158e-05 5.57680335e-03 1.18211887e-04
      4.10543615e-03 9.96124698e-04 9.62665217e-05 7.05008162e-03
      4.08039521e-03 -6.27340097e-03 5.80801768e-03 1.41666314e-04
      -1.48239578e-05 2.60244915e-03 -3.02233454e-03 2.10548658e-03
      1.46020930e-02 -6.02985034e-03 1.60366041e-03 2.65838462e-03
      1.09231444e-02 2.12018634e-03 -4.90531931e-03 6.49161264e-03
      -1.00176397e-03 -3.99961788e-03 4.90099983e-03 5.20703476e-03
      7.99121894e-03 -2.52172211e-03 6.80404762e-03 1.63801666e-03
      5.76652959e-03 6.92495436e-04 3.31725855e-03 4.77849506e-03
      1.19384127e-02 6.06260588e-03 3.22065956e-04 2.65393313e-03
      -7.31114415e-04 5.29120443e-04 -1.76349573e-03 -9.08541773e-03
      -4.36985400e-03 5.89329191e-03 -2.18037938e-04 -4.88538353e-04
      3.66823212e-03 1.06207316e-03 3.43988696e-03 -3.88556253e-03
      -1.75509288e-03 -4.36985400e-03 2.51479517e-03 8.15180317e-03
      -6.67391811e-03 2.62602931e-03 4.34726337e-03 6.91975048e-03
      2.22249539e-03 3.18033970e-03 -5.70132805e-04 6.26972364e-03
      3.92967043e-03 -1.56590447e-03 2.78789527e-03 3.32953315e-03
      4.09063837e-03 -7.87220616e-03 3.06753931e-03 3.39312624e-04
      1.13772210e-02 2.28275033e-03 -2.39306525e-03 2.26383354e-03
      2.05240468e-03 1.41982886e-03 -4.22837352e-03 3.13121430e-03
      -1.04449666e-03 3.83720617e-03 7.33535783e-03 1.02399488e-03
      2.47985939e-03 5.20991068e-03 2.26237084e-04 -2.83708167e-03
      -1.42493322e-02 -1.04449666e-03 5.84268942e-03 8.38087127e-03
      1.24281924e-03 2.54526804e-03 6.49833004e-04 -3.28267249e-03
      -6.49240660e-03 3.48332804e-03 -3.92454071e-03 4.64185514e-03
      1.06169097e-02 1.33638142e-03 4.41122756e-05 2.53516785e-03
      1.44340520e-05 -1.04343658e-03 2.42714610e-04 -1.71290766e-02
      6.16346160e-03 6.81545818e-03 -1.64874902e-04 5.45594143e-04
      5.30621316e-03 6.25118439e-04 5.30078076e-04 -1.13211637e-02
      4.68972605e-03 4.68972605e-03 6.55606575e-03 -4.73570515e-04
      -1.29813584e-03 9.98578267e-04 -9.29246133e-04 1.65252073e-03
      -6.45750435e-03 4.68972605e-03 -1.73536304e-03 7.73309777e-03
      -1.21085637e-03 -1.26065395e-03 -1.16425799e-03 3.62403248e-03
      2.73227482e-03 -6.35695120e-04 -1.16361007e-02 -4.02918085e-03
      7.26002734e-03 -7.72042316e-04 -5.12624532e-03 -3.76589433e-03
      1.73021923e-03 8.52300669e-04 -6.67691184e-03 -1.35178044e-02
      1.10588148e-02 -1.63577776e-03 2.14876072e-03 4.26839950e-04
      -1.15611556e-03 -9.77949239e-04 -6.64381485e-04 -7.41201453e-03
      1.10588148e-02 1.33053046e-02 -2.95302621e-03 -1.10773987e-03
      7.16857088e-04 -5.18846442e-04 -3.14439670e-03 -2.75347172e-03
      -4.89834975e-03 1.28454044e-02 -2.84383656e-03 -6.35941862e-04
      3.92814027e-03 -1.78010587e-03 1.71899504e-04 2.15615332e-03
      -1.28666160e-03 -7.84806814e-03 -1.91678591e-02 -7.76383188e-03
      -5.98542765e-03 1.65547465e-03 -8.89370218e-04 2.58394005e-03
      5.17864828e-04 8.42666253e-04 -2.78553879e-03 -1.79366525e-02
      1.62997078e-02 4.08308115e-03 -4.56495502e-04 -4.27044090e-03
      -5.38179325e-03 -4.30543674e-03 -5.57314744e-03 5.88206341e-03
      1.68253053e-02 1.66505668e-02 1.00808628e-02 -8.51962343e-03
      -1.41106667e-02 -4.29137889e-03 -6.80231955e-03 -1.43632442e-02
      -2.24693283e-03 1.32799940e-02 -1.64755099e-02 -9.40689258e-03
      -9.20608174e-03 -4.05579992e-03 -2.88854027e-03 -1.64989545e-03
      -3.17163742e-03 1.05042965e-03 -1.02026053e-02 -1.57213639e-02
      -1.55511135e-02 -1.56954397e-02 -3.82916303e-03 -6.93706621e-04
      1.62389956e-03 -1.12548582e-02 -2.37924559e-03 -3.23785492e-03
      2.24167295e-02 2.03931518e-03 -4.61055804e-03 -1.16042150e-02
      -1.47139076e-02 -1.20558869e-02 -1.39877480e-02 -1.11823454e-02
      1.16027212e-02 7.02469796e-03 -6.02484308e-03 -2.68198666e-04
      -9.66201071e-03 -1.61581021e-02 -1.30807646e-02 -1.43639203e-02
      -1.51614482e-02 1.11063998e-02 8.67198408e-03 3.46063040e-02
      2.60233209e-02 -1.38777848e-02 -2.82853171e-02 -2.77330205e-02
      -2.47263778e-02 -2.73263734e-02 1.16078435e-02 1.43304691e-02
      2.64302790e-02 2.55768429e-02 -1.21003613e-02 -1.51122436e-02
      -2.02497076e-02 -2.57814843e-02 -1.96629390e-02 1.64591242e-02
      1.70393090e-03 -1.80123025e-03 1.19180856e-02 1.03650410e-02
      -3.57142906e-03 -8.88477545e-03 -1.19811213e-02 -1.23324096e-02
      1.21411867e-02 -3.73010268e-03 -5.23392737e-05 -7.65447738e-03
      5.93588455e-03 4.73693799e-04 -5.82568301e-03 -5.17005986e-03
      -7.00217905e-03 3.22263921e-03 6.95891120e-03 1.22972326e-02
      1.61321033e-02 5.10196295e-03 3.39236204e-03 -8.37773923e-03
      -2.08034124e-02 -6.12974772e-03 1.46317743e-02 -3.15673708e-04
      -4.92718630e-03 -2.53706262e-03 2.71070050e-04 -3.32146115e-03
      -5.56653785e-03 -9.61264409e-03 6.07878203e-03 6.76817726e-03
      3.85327800e-03 8.59495346e-03 -6.59645163e-03 1.13947340e-03
      5.25939092e-03 4.89303051e-03 2.75688455e-03 -5.13051869e-03
      7.76923541e-03 -2.21076282e-03 7.46772112e-03 -8.10928643e-04
      -6.92742877e-04 -1.93948229e-03 3.72025790e-03 -5.55982953e-03
      -4.55174642e-03 4.75678826e-03 -2.61015655e-03 -1.19157870e-04
      2.01387843e-03 -9.67225176e-04 5.18926652e-03 -1.98320742e-03
      7.16552185e-03 -1.66496832e-03 -2.60262517e-04 -7.13400915e-03
      -6.10712171e-03 -2.18280172e-03 -9.91316512e-03 4.21704957e-03
      5.55603858e-03 4.71913209e-03 -9.31433402e-03 -2.93540768e-03
      4.21571033e-03 1.27628976e-02 9.35509708e-03 6.40106201e-03
      -1.02929992e-03 -3.37442616e-04 -5.32023842e-03 2.02444964e-03
      1.62903173e-03 2.78357719e-03 1.44855427e-02 5.35655185e-04
      5.61363110e-03 -1.87382230e-03 -1.60441874e-03 -5.04920585e-03
      1.63420371e-03 -4.10171226e-03 -7.31573487e-03 -1.80531119e-03
      -2.53561465e-03 3.29491496e-03 -2.02346384e-03 1.06531661e-02
      1.36875277e-02 -5.67868678e-03 -6.64829835e-03 -1.16949119e-02
      5.93319302e-03 6.52430754e-04 8.57825112e-03 -5.35776420e-03
      -8.43295269e-03 3.72243259e-04 -1.24701280e-02 -1.46480938e-02
      6.82563428e-03 1.90054309e-02 -4.36676061e-03 4.64327307e-03
      -5.39859384e-03 1.82795699e-03 -1.56376674e-03 -5.54473663e-04
      9.15995147e-03 6.19326485e-03 -1.11177703e-03 -7.55959749e-03
      -1.56491273e-03 1.83890190e-03 5.48620592e-04 1.09648157e-03
      -5.34551544e-03 5.52092493e-03 -7.50473468e-03 9.70903970e-03
      -3.88450758e-03 1.44402462e-03 -2.08284194e-03 -9.99518577e-03
      -7.66622834e-03 -8.29110947e-03 -1.08711310e-02 7.22115347e-03
      6.27430854e-04 -3.66469612e-03 9.76630719e-04 -3.18343262e-03
      -1.81613537e-03 -2.56691175e-03 -8.15993361e-03 6.20468939e-03
      6.09746130e-05 -1.15498146e-02 -1.03520835e-02 -1.32182008e-02
      -7.52601633e-03 -6.13015937e-03 -6.94642123e-03 -1.41537506e-02
      -6.70978567e-03 4.60028322e-03 -6.18423428e-03 -8.54437985e-03
      -1.88727826e-02 -8.58386233e-03 -7.22938497e-03 -1.95044838e-03
      -6.29293546e-03 -2.92531564e-03 2.70147007e-02 3.56449187e-02
      1.12010287e-02 -1.22741768e-02 -1.58401467e-02 -1.04593197e-02
      -8.84501170e-03 -1.38345296e-02 -1.58804224e-03 2.85251904e-02
      3.30019221e-02 1.94752011e-02 -2.72105448e-02 -2.08859183e-02
      -1.23748537e-02 -6.51842030e-03 -5.85622340e-03 8.70078709e-03
      8.16750620e-03 -1.97812813e-04 -2.01269276e-02 -2.02874672e-02
      -1.69001184e-02 -1.30807962e-02 -1.24074267e-02 -4.33928939e-03
      -1.13467332e-02 3.32853012e-02 1.93900336e-02 -1.87261086e-02
      -1.62115674e-02 -2.46371031e-02 -1.55243324e-02 -2.69723199e-02
      -1.57794897e-02 1.00859348e-03 4.23146412e-02 4.44406271e-02
      8.91068578e-03 -3.07591278e-02 -2.93591879e-02 -2.14096606e-02
      -1.23018986e-02 -5.81406243e-03 7.31981033e-03 2.96734422e-02
      4.43528146e-02 -6.76678540e-03 -1.79929268e-02 -3.67468596e-02
      -3.70651148e-02 -3.11448015e-02 -2.55463906e-02 1.38432318e-02
      9.31989960e-03 2.27852277e-02 1.47816576e-02 -6.01414219e-03
      -2.22388022e-02 -1.84739958e-02 -1.41143259e-02 -1.67181902e-02
      4.33625141e-03 1.12676388e-02 3.17869186e-02 3.08203734e-02
      -8.17417912e-03 -1.53290266e-02 -7.81132141e-03 -1.04117086e-02
      -5.56939654e-03 1.35507928e-02 -5.77826193e-03 1.00440579e-02
      1.73692573e-02 5.10298833e-03 -1.85974650e-02 -1.06944432e-02
      -1.31904427e-02 -4.97218268e-03 -1.17959771e-02 -7.95266870e-03
      1.69455039e-03 -6.73251599e-03 -1.91382077e-02 -1.94719601e-02
      -3.94549733e-03 -6.87139388e-03 -4.63191140e-03 -6.68664288e-04
      1.02363331e-02 1.35621084e-02 1.36392890e-02 8.97516264e-04
      1.37861492e-03 1.50261994e-03 -5.26192226e-03 4.56315279e-03
      1.16529549e-02 4.63491445e-03 -7.16084987e-03 9.77722928e-04
      2.91021378e-03 -2.63339980e-03 -4.83798888e-03 -1.15616864e-03
      7.80642452e-03 7.05188653e-03 1.72098714e-03 -2.02716561e-03
      -6.55545620e-03 -1.08909877e-02 -8.94362014e-03 1.78049563e-03
      6.05398091e-04 4.70273290e-03 4.40351944e-03 2.95225298e-04
      -1.09525230e-02 -1.72640383e-02 -1.22107640e-02 -9.05562285e-03
      -3.94638488e-03 4.20735870e-03 2.28550285e-03 -2.55184900e-03
      9.83282737e-03 5.85053302e-03 9.93275549e-03 7.27870734e-03
      6.25996664e-03 1.23345610e-02 2.31730659e-02 1.76486727e-02
      2.33122949e-02 -1.89957563e-02 -3.88790946e-03 7.75265787e-03
      -4.95786453e-03 8.28267727e-03 2.21680067e-02 2.03733221e-02
      8.58282484e-03 -1.31636793e-02 1.50484182e-02 6.52950862e-03
      -1.03737200e-02 -3.20007838e-02 -2.32723746e-02 -3.59381456e-03
      2.30377335e-02 2.59202477e-02 2.27816738e-02 -1.54375657e-02
      4.17176494e-03 -6.27855537e-03 -2.73422226e-02 -1.57268345e-02
      -1.42109476e-03 1.66288186e-02 1.36183016e-02 -9.28055309e-03
      -2.86613051e-02 -2.53358041e-03 1.07358685e-02 1.36366207e-02
      1.60051808e-02 1.88487098e-02 1.87518317e-02 -2.35976710e-04
      -3.57734673e-02 -2.66705900e-02 1.52986031e-02 2.77745444e-02
      2.13399287e-02 1.27165811e-02 3.12653207e-03 1.12899095e-02
      -7.48681836e-03 -3.77687924e-02 -2.35085133e-02 3.20836976e-02
      3.29164788e-02 -7.24746962e-04 1.60852149e-02 8.38841125e-03
      6.12378062e-04 -9.58197191e-03 -2.72414126e-02 -3.45559604e-03
      4.33267318e-02 6.08286038e-02 -2.07648656e-04 -5.49498852e-03
      -1.05670346e-02 -7.68462941e-03 -9.53114592e-03 -2.49626245e-02
      -3.76027115e-02 3.17308120e-02 2.62235738e-02 -1.23200975e-02
      -2.44928170e-02 -2.93473750e-02 -1.73221771e-02 -2.10972298e-02
      -4.63175103e-02 2.37469282e-02 6.04847036e-02 5.08384854e-02
      -1.56395398e-02 -3.08051910e-02 -2.50451230e-02 -9.88228433e-03
      -9.87273827e-03 -4.65663709e-03 -3.14719463e-03 6.12229295e-02
      6.28850758e-02 -3.96229699e-02 -5.94503805e-02 -5.34393787e-02
      -2.75701452e-02 -1.81984417e-02 -3.67836170e-02 3.10167223e-02
      6.07149415e-02 6.24872558e-02 -2.85107847e-02 -4.91021536e-02
      -4.60936427e-02 -7.56698335e-03 -8.30394588e-03 -4.07626107e-03
      2.39243545e-02 3.87948565e-02 3.33547555e-02 -2.81768367e-02
      -4.13640812e-02 -2.78762914e-02 -1.52917579e-02 -1.75079163e-02
      -8.43796227e-03 2.47598533e-02 3.78915556e-02 1.11875990e-02
      -3.46388109e-02 -3.75412777e-02 -2.28092503e-02 -1.66085232e-02
      -1.28954994e-02 -7.78903672e-03 8.04263726e-03 3.54407616e-02
      3.30497324e-02 -2.16341112e-02 -3.69525179e-02 -2.74722613e-02
      2.66408933e-05 -1.09870862e-02 -1.34169823e-02 6.13157637e-03
      3.08842920e-02 2.18816418e-02 -2.42902320e-02 -3.46133485e-02
      -1.53330062e-02 -7.31268199e-03 -9.22904257e-03 -1.60904583e-02
      2.89868433e-02 3.87849212e-02 8.84375535e-03 -1.95322484e-02
      -2.33914293e-02 -2.23206002e-02 -1.51273496e-02 -4.63756872e-03
      -7.36221392e-03 1.76606644e-02 3.41909118e-02 1.75737147e-03
      -1.03293397e-02 -3.28488424e-02 -4.18007448e-02 -3.12011149e-02
      -2.61627380e-02 -1.79710854e-02 2.31878497e-02 3.68488841e-02
      3.91947031e-02 -1.86822657e-02 -2.33928449e-02 -1.88438706e-02
      -1.52403926e-02 -4.71920287e-03 -3.41409980e-03 2.31071133e-02
      4.07543257e-02 3.90434153e-02 -2.08375771e-02 -3.12471371e-02
      -3.03239394e-02 -2.75574084e-02 -6.33595884e-03 2.01134067e-02
      -2.08750530e-03 1.36857154e-03 1.25377662e-02 1.45281469e-02
      -7.35426554e-03 -7.09135644e-03 -5.41980006e-03 -2.46147276e-04
      9.30825554e-05 -1.27905300e-02 -3.14836833e-03 -5.50906267e-03
      -1.03765493e-02 -1.89376548e-02 -8.28081928e-03 -6.40290882e-03
      -5.13197202e-03 -5.89018362e-03 8.64759646e-03 -2.96557648e-03
      -3.53334169e-03 4.49301908e-03 -5.11325663e-03 -7.48641742e-03
      1.50181372e-02 9.20895673e-03 1.21756718e-02 7.51122041e-03
      -1.43914474e-02 -1.67587213e-03 7.27509614e-04 -1.01225106e-02
      -1.19566657e-02 -2.22193589e-03 1.28323045e-02 7.17236986e-03
      -3.82027566e-03 -2.79248599e-03 3.16364225e-03 -4.31785500e-03
      -5.93567779e-03 3.10033676e-03 2.46828096e-03 2.19872314e-03
      -5.73841389e-04 3.35463812e-03 -2.23608296e-02 -3.59017700e-02
      -1.39670810e-02 -4.84010577e-03 1.14429626e-03 7.34170945e-03
      3.71660921e-03 6.56077289e-04 1.38843469e-02 -2.28910986e-02
      -3.63501080e-04 1.27482461e-03 3.35661694e-04 2.48097116e-03
      8.20200890e-04 -1.66405749e-03 1.38334874e-02 1.37897972e-02
      1.28624905e-02 -3.82667221e-02 -7.62768555e-03 1.23857800e-02
      2.70411838e-03 4.54048254e-03 -1.52320461e-03 2.08431445e-02
      1.49781946e-02 -8.45928676e-03 -5.52275702e-02 -5.92156574e-02
      -3.76499854e-02 -1.74094737e-02 3.84474359e-03 3.08103603e-03
      8.05115420e-03 4.61315364e-02 5.23420125e-02 -9.59604047e-03
      -5.98307364e-02 -4.08953540e-02 -3.32217403e-02 -4.41643409e-03
      -8.34519323e-03 1.57238748e-02 3.79678309e-02 1.93568543e-02
      -2.67026257e-02 -4.07451279e-02 -1.24602700e-02 -8.38749856e-03
      -6.84102473e-04 -4.53601172e-03 4.10422459e-02 5.98676428e-02
      4.22008559e-02 2.20971406e-02 -4.00140062e-02 -2.07430385e-02
      -2.44638100e-02 -9.98803321e-03 -1.99364424e-02 2.74975020e-02
      2.27848887e-02 5.62536456e-02 3.80913317e-02 -2.76376065e-02
      -2.37489864e-02 -3.12276166e-02 -2.28625629e-02 -3.12696658e-02
      -1.34337889e-02 1.52695403e-02 4.93556596e-02 4.06231023e-02
      -3.83327715e-02 -4.66850810e-02 -4.47147228e-02 -2.69179884e-02
      -2.44065803e-02 -1.93922017e-02 2.53109243e-02 4.42595743e-02
      3.99903841e-02 -1.50501914e-02 -1.73973013e-02 -3.41407694e-02
      -2.91750915e-02 -3.46049480e-02 -1.59074739e-02 3.32077080e-03
      4.28679176e-02 1.96221527e-02 -2.03877985e-02 -2.60611437e-02
      -3.28736231e-02 -3.28886285e-02 -2.42042579e-02 -1.40693337e-02
      2.45425068e-02 6.44751266e-02 5.47872111e-02 -3.00816242e-02
      -5.76465391e-02 -5.38239181e-02 -2.68182810e-02 -4.12586814e-04
      5.06310770e-03 1.83950197e-02 5.74858896e-02 4.80156541e-02
      -8.41150340e-03 -3.96571569e-02 -3.47649418e-02 -1.05179511e-02
      3.47013259e-03 1.18439912e-03 1.63390953e-02 6.35774583e-02
      3.64468880e-02 -7.28692999e-03 -2.72023976e-02 -3.68064642e-02
      -4.63520847e-02 -2.04715710e-02 1.33986734e-02 2.59469282e-02
      6.52624965e-02 7.06465244e-02 6.56713732e-03 -2.62739249e-02
      -3.41373347e-02 -3.79611738e-02 -3.74382511e-02 -1.44207841e-02
      -3.46821733e-03 3.23937237e-02 2.39000618e-02 -7.76338810e-03
      -3.45173441e-02 -2.39743255e-02 -3.46535118e-03 -9.46236774e-03
      -2.20282841e-02 2.50242464e-02 4.92030829e-02 5.88135943e-02
      -2.30655279e-02 -3.22886966e-02 -1.88972224e-02 -5.81470504e-03
      -1.42660374e-02 -1.27338916e-02 -1.26377251e-02 5.47860488e-02
      6.47225529e-02 -5.76875033e-03 -2.66173333e-02 -2.89320797e-02
      -4.91549149e-02 -5.12635447e-02 -4.63007875e-02 -1.69084233e-03
      3.84339802e-02 5.39451912e-02 -1.38229541e-02 -2.23156065e-02
      -2.21449528e-02 -1.42567623e-02 -3.80763486e-02 -3.86387669e-02
      3.98706421e-02 5.21047525e-02 5.42978197e-02 -2.39637606e-02
      -2.63190158e-02 -2.13259850e-02 -9.01992433e-03 -7.60492170e-03
      8.52129795e-03 3.31192501e-02 4.58757393e-02 2.86326520e-02
      -1.94810107e-02 -3.16057242e-02 -2.64393706e-02 -9.49680805e-03
      -1.12947790e-04 2.03984510e-02 -1.05734495e-02 1.91442519e-02
      2.88343932e-02 -1.70385186e-02 -1.00502558e-02 -1.35317249e-02
      -4.20148345e-03 -8.31054989e-03 -3.03822961e-02 -2.03993153e-02
      -3.09420656e-02 -4.18581814e-02 -3.12257418e-03 -9.92598361e-04
      -5.30770607e-03 -7.27709569e-03 -2.47371080e-03 -2.22329255e-02
      2.86771241e-03 -4.15172148e-03 -5.41300047e-04 3.76081723e-03
      -3.00227222e-03 -3.48079880e-03 1.10908253e-02 1.65105723e-02
      9.14137531e-03 3.22776055e-03 -1.52719961e-02 2.14208639e-03
      3.65755986e-03 -6.46070344e-03 -4.82728193e-03 -4.70231427e-03
      7.17106275e-03 -4.02336736e-04 -1.90044567e-03 1.83391338e-03
      6.58811210e-03 4.34940169e-03 -4.25918214e-03 -2.92747305e-03
      -4.11844207e-03 -1.08114574e-02 -8.99004735e-05 -4.74112283e-04
      -1.86936241e-02 6.13110140e-03 9.15697892e-04 -1.01981945e-02
      -3.94136785e-03 1.41981104e-03 -2.49911519e-03 -3.60640784e-04
      6.62055984e-03 -1.93670504e-02 -1.26012543e-03 -5.16780827e-04
      -3.80722899e-03 -2.00385973e-03 -2.00799271e-03 -6.27943955e-04
      6.89659221e-03 6.81424653e-03 5.19250333e-03 -2.79428642e-02
      -3.91433341e-03 -3.63916019e-03 -3.28480196e-03 -4.96700127e-03
      1.65305089e-03 1.92238744e-02 6.23697788e-03 -2.52252705e-02
      2.94428063e-03 8.78685678e-04 -5.12211351e-03 4.08403110e-04
      5.20548271e-03 4.32572933e-03 6.14954159e-03 6.29580114e-03
      -1.93506014e-02 -1.53568154e-02 -3.89912608e-03 -8.24966002e-03
      4.97802719e-03 3.66060389e-03 4.09104303e-03 1.45877153e-02
      2.99777426e-02 1.26619665e-02 -3.23677659e-02 -6.41306350e-03
      -5.09857479e-03 -8.73866447e-05 -3.10626114e-03 -1.97180765e-04
      2.79304553e-02 3.15439552e-02 5.16411103e-03 -3.47044654e-02
      -1.28554190e-02 -3.06814187e-03 -8.38964339e-03 -7.85210263e-03
      -8.40898231e-03 2.06351653e-02 2.39286898e-03 -4.66840388e-03
      -5.23193814e-02 -2.32785754e-03 -5.17545547e-03 7.26849353e-03
      5.28319413e-03 6.27890695e-03 2.44730525e-02 1.23459920e-02
      1.16965268e-03 -3.83713283e-02 -1.41790146e-02 -1.00809783e-02
      -8.77513271e-03 -1.49753094e-02 4.26746672e-03 3.66149619e-02
      1.48001956e-02 3.19135445e-03 -2.95102764e-02 -4.10619378e-03
      -5.39488764e-03 -2.65257247e-02 -4.33623865e-02 -1.90390944e-02
      3.47590842e-03 2.77215708e-02 6.14154711e-02 3.04750819e-02
      -4.14244225e-03 -1.04087936e-02 -2.71339640e-02 -4.65130396e-02
      -1.72135886e-02 1.18520129e-02 5.27992584e-02 2.21922621e-02
      -1.15725938e-02 -1.31831504e-02 -2.05474384e-02 -4.22904752e-02
      -6.19967505e-02 -3.35494131e-02 3.79788019e-02 5.26791662e-02
      6.41262010e-02 5.38415723e-02 -4.10576072e-03 -1.25652580e-02
      -4.17071693e-02 -6.16824701e-02 -4.86092232e-02 1.58635397e-02
      2.58239359e-02 7.04686642e-02 6.08049259e-02 -9.98592097e-03
      -1.72127001e-02 -3.07131987e-02 -5.15088737e-02 -3.80814485e-02
      1.36716326e-03 1.40606621e-02 6.84226379e-02 7.27763176e-02
      -5.03257057e-03 -1.53704369e-02 -2.95801591e-02 -5.80660477e-02
      -5.84729612e-02 -3.80619355e-02 3.26946639e-02 6.24056235e-02
      5.58475778e-02 -7.06033548e-03 -5.26385568e-03 -1.11011676e-02
      -5.09209782e-02 -5.46677336e-02 -1.73057187e-02 -8.93481821e-03
      5.08757792e-02 2.92822607e-02 -8.19693226e-03 -8.89469811e-04
      -6.22236170e-03 -2.98095625e-02 -5.21748289e-02 -3.50265056e-02
      1.54845463e-03 6.19133636e-02 6.93631545e-02 1.06192008e-02
      1.15127042e-02 7.63790868e-03 -3.01677082e-02 -5.26160412e-02
      -3.86454090e-02 -2.10434049e-02 3.71379815e-02 4.92519587e-02
      1.87560394e-02 3.11479606e-02 1.41871972e-02 8.21583159e-03
      -2.11799890e-02 -3.53199318e-02 -6.09356258e-03 2.55921725e-02
      1.52348541e-02 7.94284325e-03 2.22400371e-02 1.37822228e-02
      2.07747915e-03 -3.46192680e-02 -3.11313551e-02 -3.15838158e-02
      -1.27547272e-02 -8.33822414e-04 1.59431603e-02 3.99215519e-02
      1.53539153e-02 8.46640766e-03 -9.54927132e-03 -2.95722838e-02
      -3.61573845e-02 -2.97750086e-02 -1.81719777e-04 1.70166586e-02
      4.27083299e-02 1.89133566e-02 1.58880912e-02 1.10886255e-02
      -2.97825243e-02 -2.49565728e-02 -4.79778424e-02 -2.80835088e-02
      4.29701880e-02 5.52112050e-02 3.28205228e-02 1.44355223e-02
      1.28899226e-02 -1.58973318e-02 -3.41248810e-02 -2.52842363e-02
      -3.99626652e-03 2.71649957e-02 4.79304083e-02 1.82435717e-02
      8.11144989e-03 5.37991012e-03 -2.90096570e-02 -2.46555544e-02
      -3.76251079e-02 5.68898860e-03 4.79778536e-02 5.25785051e-02
      3.57504487e-02 7.10337749e-03 4.15970804e-03 -1.19029824e-02
      6.06985623e-03 5.68462629e-03 1.16490305e-03 -2.36330368e-03
      -1.02532944e-02 -9.47229471e-03 -7.09254900e-03 -9.08479281e-03
      2.11688597e-03 2.11688597e-03 -1.10910926e-02 5.87505870e-04
      -8.73174518e-03 -1.41031556e-02 -1.06318537e-02 -6.14905683e-03
      -2.38751248e-03 2.11688597e-03 1.01543292e-02 4.92818607e-03
      2.61425856e-03 3.53190699e-04 -1.39796631e-02 -4.72155027e-03
      -5.32324100e-03 2.80837133e-03 1.19088730e-02 6.16922323e-03
      5.54092973e-03 1.21206464e-03 -6.49077492e-03 -1.19022513e-02
      -4.34354180e-03 -1.12489508e-02 -8.81108921e-04 9.13387351e-03
      6.03214744e-03 -3.37245688e-02 -1.00491149e-02 -7.48083135e-03
      -7.74564967e-03 -2.73490953e-03 1.73897156e-03 -1.81294815e-03
      6.40492653e-03 6.03214744e-03 -6.59201480e-03 -3.71112190e-02
      -1.22833131e-02 -1.11685423e-02 -2.97982828e-04 3.09369480e-03
      9.20198800e-05 1.18214404e-02 1.05573665e-02 -2.52561481e-03
      -4.83203353e-03 -7.00733857e-03 -6.19087089e-03 -1.54286507e-03
      -4.03796835e-03 -6.68731006e-03 2.06000078e-02 1.52865406e-02
      2.06266320e-03 -1.83996242e-02 -1.41505143e-02 -9.58912633e-03
      -1.60825287e-03 -5.84114064e-03 -3.67908762e-03 2.54313610e-02
      1.36728492e-02 1.21620381e-02 -4.67575938e-02 -1.36796162e-02
      -1.56996753e-02 -6.44687330e-03 -4.96251974e-03 -2.09766510e-03
      2.31871456e-02 2.02155095e-02 1.34699177e-02 -2.87803113e-02
      -1.69511680e-02 -2.14597378e-02 -1.96960997e-02 -2.12537367e-02
      -2.51035485e-03 2.95777507e-02 2.21471656e-02 1.28676919e-02
      -1.48279471e-02 -8.30362830e-03 -1.30685922e-02 -1.05215376e-02
      -1.50707932e-02 -9.22432728e-03 1.32067269e-02 2.06960253e-02
      2.08750013e-02 -5.73788420e-04 -3.24081560e-03 -1.18098790e-02
      -1.36203226e-02 -1.51290540e-02 -7.77218770e-03 -9.85698868e-03
      3.88966538e-02 3.95467058e-02 1.16695762e-02 -8.76624323e-03
      -1.19119771e-02 -2.14406028e-02 -5.11720441e-02 -2.73454804e-02
      2.88878474e-02 2.94655748e-02 5.36858961e-02 3.42193656e-02
      -2.69289652e-04 -3.34860844e-04 -1.24312574e-02 -5.30280285e-02
      -4.62735519e-02 -1.35348774e-02 9.12625995e-03 1.46508645e-02
      5.80172427e-03 -1.73493259e-04 2.64485745e-04 2.42484035e-03
      -3.22677940e-03 -2.58156098e-03 -7.00876815e-04 -9.26126633e-03
      4.04102821e-03 6.82246033e-03 -4.49453760e-03 1.76125357e-03
      3.65975720e-04 -1.16078416e-02 -2.35192720e-02 -7.50313187e-03
      1.56134842e-02 4.51694876e-02 3.08121834e-02 1.68729015e-02
      2.12485455e-02 2.01096982e-02 -3.20642069e-02 -4.63003516e-02
      -2.48354077e-02 -2.20312718e-02 1.12336352e-02 1.27121955e-02
      1.72932092e-02 2.83499267e-02 2.77723093e-02 3.34084802e-03
      -3.16994488e-02 -2.78866105e-02 -1.43805344e-03 1.52781252e-02
      1.30854351e-02 1.29569210e-02 1.84600782e-02 2.27117613e-02
      5.75349387e-03 -1.95678696e-02 -8.70106090e-03 -1.65581144e-02
      1.58722308e-02 1.34261372e-02 1.97914056e-02 1.99407954e-02
      2.87411902e-02 1.09941131e-02 -1.91783030e-02 -1.87997427e-02
      -3.49113718e-02 2.43043434e-03 1.04425056e-02 1.80098675e-02
      3.01977787e-02 3.15746069e-02 1.74012724e-02 -1.44653805e-02
      -3.71038988e-02 -3.87370251e-02 -6.69028331e-03 1.31319892e-02
      3.09843998e-02 3.69049422e-02 3.37488167e-02 1.77891962e-02
      9.74247232e-03 -3.45617235e-02 -3.44061442e-02 1.66375041e-02
      2.13839412e-02 2.75226906e-02 3.08655370e-02 3.84870432e-02
      2.21287478e-02 -7.43680913e-03 -3.16157341e-02 -3.61140594e-02
      -7.29802297e-03 1.61159839e-02 3.49417403e-02 3.99930440e-02
      3.31865586e-02 2.21090838e-02 1.72178484e-02 -3.33501250e-02
      -4.77675572e-02 -2.09122971e-02 1.31830974e-02 3.02891992e-02
      3.87006588e-02 3.00919116e-02 1.16339000e-02 8.95692408e-03
      -3.81765366e-02 -2.84687560e-02 -5.06998114e-02 9.53435153e-03
      5.03736995e-02 5.34503832e-02 4.04491536e-02 2.12029126e-02
      1.45020755e-02 -1.76547300e-02 -3.73959802e-02 -2.29357257e-02
      8.32213089e-03 2.72185132e-02 3.45578864e-02 3.50344367e-02
      1.63931996e-02 1.68699455e-02 -3.66628468e-02 -1.74418148e-02
      -3.12291589e-02 5.98939601e-03 3.55985612e-02 3.54926325e-02
      2.85029914e-02 1.93151850e-02 1.96587555e-02 -1.58097912e-02
      -1.04590235e-02 -4.62749507e-03 -5.84310945e-03 -4.74581635e-03
      -7.50340382e-03 -1.04609714e-03 -2.11020489e-03 -1.55121449e-03
      -7.63395522e-03 -9.64468997e-03 -2.07416248e-03 -4.17499279e-04
      -4.23467439e-03 -9.05109197e-03 -3.68616497e-03 -4.30689240e-03
      -2.22651334e-03 -7.28817936e-03 1.86972413e-02 2.47302167e-02
      4.38293442e-03 -1.20623014e-03 -2.01087501e-02 -7.92285148e-03
      -7.05677317e-03 -1.61585435e-02 1.03527140e-02 1.25168599e-02
      -4.51268349e-03 -1.21787889e-02 -4.08023549e-03 -1.90987922e-02
      -1.05627561e-02 -9.66033991e-03 -2.27576196e-02 1.25168599e-02
      -3.81887262e-03 7.40190456e-03 3.22328461e-03 -1.45265064e-03
      -3.27665638e-03 -2.05662611e-04 -2.78406008e-03 -1.62218616e-03
      -1.69328903e-03 -7.09178764e-03 3.48891295e-03 6.53317955e-04
      -7.57775921e-03 -5.19376202e-03 1.88388152e-03 -3.08111915e-03
      1.58269005e-03 -1.46044849e-03 6.24722196e-03 -5.43561345e-03
      -8.07208382e-03 -5.60245570e-03 -9.36953910e-03 -1.74272223e-03
      -5.30634308e-03 -1.09484633e-02 1.34706795e-02 5.65606588e-03
      -6.57499442e-03 -7.88308028e-03 -1.13413911e-02 -6.26435503e-03
      2.20653578e-03 -3.22253699e-03 -5.85954869e-04 7.11751077e-03
      -6.73954701e-03 -7.17655465e-04 -4.26321465e-04 -1.59360829e-03
      -1.37340592e-03 2.30663130e-03 -1.57241046e-03 3.24494950e-03
      -2.18608277e-03 -2.64001475e-03 -8.15916574e-04 1.36846188e-03
      3.60273849e-03 -6.62767328e-04 4.67903737e-04 -9.40099824e-04
      -1.36869238e-03 -7.53968209e-03 2.45419354e-03 -6.37880014e-03
      -7.15565810e-04 -5.73621271e-03 3.96189326e-03 3.05401278e-03
      1.01442519e-03 1.73641209e-04 4.35264828e-03 2.45419354e-03
      -3.90523276e-03 8.33418511e-04 8.28846882e-04 1.00918943e-02
      4.15194267e-03 4.19677453e-05 -7.34192645e-03 2.45419354e-03
      -3.41838575e-03 -1.81261625e-03 7.73516542e-04 1.47873338e-03
      2.56383617e-04 1.13960018e-03 3.34049552e-03 3.55168572e-06
      -5.68347098e-03 -2.84199696e-03 -4.49452875e-03 1.89712539e-03
      7.90927326e-04 -5.90464006e-05 1.12869521e-03 4.35159262e-03
      1.64355140e-03 2.86825889e-05 3.30736837e-03 -7.54021388e-03
      -1.64147594e-03 2.41038552e-03 5.08687459e-03 9.75466217e-04
      5.70046308e-04 -1.19755948e-02 3.76988552e-03 3.53294611e-03
      -1.15868794e-02 6.69003712e-05 3.41293751e-03 -5.47552598e-04
      -1.12178538e-03 -1.62460114e-04 -8.50445125e-03 3.30736837e-03
      -5.44968992e-03 -7.22830137e-03 -3.31752189e-03 -2.41828826e-03
      -3.35542299e-03 1.80967618e-03 1.42218824e-03 2.61315773e-03
      5.44230803e-04 -9.81229916e-03 -1.41222903e-03 -4.91282856e-03
      -1.74007402e-03 -6.39187172e-03 2.24298215e-03 -9.67631175e-04
      -1.28023094e-03 -9.24012624e-03 9.13894363e-03 -1.10804252e-02
      -1.72118191e-04 -4.34395421e-04 -6.21834071e-03 -1.67315162e-03
      -1.08616725e-02 -1.15486011e-02 9.00110044e-03 1.79210752e-02
      -4.83025005e-03 -3.10966582e-03 -1.99594069e-03 -1.12064593e-02
      -6.44809101e-03 -1.64227206e-02 -5.60054509e-03 9.00110044e-03
      -1.87569261e-02 7.77597132e-04 -3.49989015e-04 2.20248615e-03
      -5.15495287e-03 -1.20730190e-04 -1.44637283e-03 -6.74612448e-03
      -1.81432366e-02 -3.00172474e-02 -5.97663503e-03 -4.48676338e-03
      2.85257562e-03 2.43520690e-03 -3.31019191e-03 -3.25664994e-03
      -5.62533317e-03 -2.72852033e-02 9.41621326e-03 -2.29059835e-03
      -2.22560181e-03 -1.39003503e-03 4.54259943e-03 7.64744030e-03
      1.21407779e-02 2.51067728e-02 5.81916468e-03 -1.02659408e-02
      8.21843452e-04 -2.74753245e-03 9.80715617e-04 4.92122956e-03
      1.04478290e-02 4.82305605e-03 2.44388785e-02 6.31766766e-03
      -1.72151737e-02 -7.37606501e-03 7.07571453e-04 8.69890861e-03
      7.54636200e-03 3.30440165e-03 1.19025575e-03 -6.36908051e-04
      -1.63408183e-02 2.11285218e-03 -3.45058303e-04 3.54738231e-03
      9.87218879e-03 5.45319961e-03 -3.12011503e-03 -2.39385292e-03
      -1.40002940e-03 -6.79892109e-05 3.49738775e-03 1.51523044e-02
      3.80292721e-03 5.70264878e-03 5.28186280e-03 4.30222042e-03
      3.19736172e-03 -2.96043721e-03 -8.34165327e-03 -4.94694710e-03
      1.10594323e-02 1.13867410e-02 1.37248880e-03 -2.46559805e-03
      -4.14980948e-03 1.08800726e-02 7.51087209e-04 4.27824492e-03</_>
    <_>
      -5.34685794e-03 -6.20908430e-03 -6.44620322e-03 -3.89447698e-04
      3.14978161e-03 -1.94100593e-03 -5.47920913e-03 1.89706089e-03
      1.11601409e-02 1.33728399e-03 -8.86914507e-03 -6.28245249e-03
      1.94313983e-03 8.03660974e-03 -8.88087088e-04 6.41116174e-03
      2.07463857e-02 7.94771034e-03 -7.32580665e-03 -4.35487879e-03
      -5.13370521e-03 2.70834938e-03 3.41083668e-03 1.41855038e-03
      7.69093458e-04 -5.44783717e-04 -5.60249900e-03 -6.72185421e-03
      5.72219817e-03 -1.83752854e-03 4.11342690e-03 1.37199583e-02
      1.03918454e-02 2.29862472e-03 2.74082250e-03 -2.32144259e-03
      -5.08232042e-03 -7.47185154e-03 -3.15722055e-03 -8.23299866e-04
      5.35880262e-03 -1.13260117e-03 8.59305076e-03 9.21785273e-03
      1.06363315e-02 5.70906093e-03 -4.43085050e-03 -1.79024728e-03
      -3.13656428e-03 -1.54540723e-03 -8.02934263e-03 8.53901263e-03
      2.08016634e-02 9.47488099e-03 -1.60586443e-02 5.97199565e-03
      3.84047185e-03 2.11030687e-03 5.24346670e-03 2.19506584e-03
      -8.61282460e-04 -8.99382401e-03 -2.29682797e-03 -1.54049005e-02
      6.88020093e-03 4.72259289e-03 6.61316141e-03 4.15660813e-03
      -6.22956455e-03 4.84390138e-03 -3.38143064e-03 2.39077854e-05
      1.06543787e-02 -1.34226531e-02 -2.61050020e-03 -6.77881064e-03
      -7.11260783e-03 -9.40613169e-03 -5.58697758e-03 1.10123307e-02
      1.68737154e-02 1.39689371e-02 -1.96595695e-02 -3.73492180e-03
      -4.54485416e-03 -5.48803899e-03 -1.07794348e-02 -7.30622839e-03
      1.05470745e-02 1.97823159e-02 -1.52644655e-02 -1.92804378e-04
      -2.48843688e-03 -1.93230459e-03 7.54319131e-03 -8.74879677e-03
      -4.64191195e-03 3.03477724e-03 -2.87189323e-04 -6.30236976e-03
      -2.19226768e-03 -3.31385667e-03 -3.41165042e-03 1.05302697e-02
      -6.71294471e-03 -3.70564009e-03 -4.45509423e-03 -5.77788148e-03
      2.12549195e-02 -1.49056409e-02 -4.90904262e-04 -5.75365406e-03
      -7.09237950e-03 -9.74734500e-03 -1.27947899e-02 8.29980988e-03
      2.88530868e-02 1.89213175e-02 -6.40667928e-03 -2.86962884e-03
      -3.47876106e-03 -7.17362715e-03 -1.58803184e-02 -1.92214604e-02
      -7.41184037e-03 1.34674888e-02 -8.36845837e-04 2.78538163e-03
      7.20710610e-04 -4.33795666e-03 -2.89292802e-04 -5.53589454e-03
      -2.85460195e-03 -6.80834940e-03 -3.47666978e-03 -3.27052572e-03
      -2.40468583e-03 -6.82761485e-04 5.78859472e-04 -1.48524577e-03
      -5.24550537e-03 -4.97990008e-03 -8.09823349e-03 9.84139391e-04
      2.85723731e-02 -6.32909173e-03 -7.60055380e-03 3.20335821e-05
      -1.39252958e-03 -4.62916074e-03 -1.26832593e-02 -1.22545408e-02
      1.91106163e-02 2.68229861e-02 -1.05662644e-03 -9.17302817e-03
      -5.88056119e-03 -6.25576638e-03 -7.35788839e-03 -1.16332145e-02
      -1.23120425e-02 2.41291132e-02 -2.99852644e-03 -6.37587812e-03
      -8.62429210e-04 5.89266885e-03 3.94298043e-03 2.45699938e-03
      1.15881278e-03 -5.79678314e-03 -6.82332029e-05 -7.14390259e-03
      -2.55862903e-02 -5.68925310e-03 5.20963082e-03 3.63834435e-03
      -1.23398693e-03 -5.00505976e-03 -1.22365430e-02 -8.23038816e-03
      3.87468673e-02 8.16782936e-03 -1.03630230e-03 -6.77638082e-03
      -8.49330612e-03 -9.22315102e-03 -1.27725042e-02 -1.47039900e-02
      2.84936745e-02 4.15209755e-02 1.64345223e-02 9.83451027e-03
      8.62481756e-05 8.28373071e-04 -6.35030540e-03 -1.86016671e-02
      -9.43726674e-03 2.82044746e-02 -1.62920840e-02 -1.89581644e-02
      1.48164312e-04 1.43501174e-03 4.99464618e-03 -7.36739952e-03
      -1.19379079e-02 -1.89475622e-02 -1.53202796e-02 -3.70774418e-02
      -3.43115092e-03 7.78506557e-03 3.23145627e-03 1.41709400e-02
      3.67572438e-03 -1.31292334e-02 -1.68377142e-02 -3.71013544e-02
      3.58667970e-02 3.12950388e-02 1.80038903e-02 -2.56186165e-03
      7.88107514e-03 -1.83705124e-03 -8.38923547e-03 -6.80216495e-03
      2.22794209e-02 3.09222173e-02 3.31663005e-02 2.25160196e-02
      -1.05611095e-02 4.46734019e-03 4.24914790e-04 3.41871521e-03
      -9.58326645e-03 8.44839029e-03 -3.59183997e-02 -1.17597694e-03
      3.53937922e-03 1.99827482e-03 1.23244142e-02 9.50548705e-03
      -6.49476843e-03 -1.05169751e-02 -4.31727655e-02 -3.65124233e-02
      -1.29223550e-02 -4.33932105e-03 7.08683074e-05 9.34245647e-04
      5.95016452e-03 -4.23706044e-03 -1.37691284e-02 -5.11791371e-02
      2.73650996e-02 -2.00413410e-02 -2.84920055e-02 -1.92553997e-02
      -1.68746784e-02 -2.07448862e-02 -1.43310558e-02 -1.35639878e-02
      3.13950069e-02 3.80334910e-03 -1.37062902e-02 -2.07913052e-02
      -1.76505391e-02 -1.16613405e-02 -1.11946380e-02 -1.69864316e-02
      -2.07556784e-02 1.28250225e-02 2.77237594e-02 3.19565386e-02
      3.22644040e-02 -1.12583544e-02 -2.50204075e-02 -3.41112465e-02
      -2.29440499e-02 -1.29448194e-02 2.71428525e-02 1.19955819e-02
      1.90800205e-02 1.99740231e-02 -3.60358553e-03 -1.16992863e-02
      -2.45369151e-02 -2.57505309e-02 -1.67140681e-02 1.71162803e-02
      -3.45193082e-03 1.73697597e-03 3.71505041e-04 4.94985795e-03
      2.30147154e-03 8.15753266e-03 -5.33668965e-04 -1.24702463e-02
      7.08471565e-03 -8.48664530e-03 1.36373751e-03 1.93590170e-03
      1.02146771e-02 -4.14561760e-03 1.13154377e-03 3.22946254e-03
      -9.80594847e-03 -2.31678388e-03 -6.19561039e-03 -2.49528908e-03
      2.63935956e-03 9.68132168e-03 5.69811370e-03 9.07234848e-03
      -2.25199736e-03 -6.13655429e-03 2.65163626e-03 -1.12217432e-02
      -9.95733868e-03 -2.15947884e-03 5.54905972e-03 -5.64400759e-03
      1.02651259e-02 -5.79668849e-04 9.81070101e-04 -3.71192256e-03
      2.69895070e-03 1.03659080e-02 5.07371360e-03 6.85783708e-03
      8.51192325e-03 2.23182817e-03 -1.17729336e-03 4.30995249e-04
      -1.03332766e-03 3.58599192e-03 1.22180860e-02 4.53526434e-03
      3.47604556e-03 1.39373625e-02 3.08214803e-03 -1.04275877e-02
      -6.10349933e-03 -8.48793890e-03 -1.54206976e-02 -1.77134741e-02
      1.04408793e-03 1.29906824e-02 -2.37258151e-04 8.48963019e-03
      4.24075872e-03 3.48775415e-03 -5.28854830e-03 -1.08149014e-02
      -2.48385556e-02 -1.52884470e-02 1.12152062e-02 9.68394801e-03
      9.51632950e-03 9.97621473e-03 -5.22343267e-04 -3.95332184e-03
      1.46619463e-02 1.19049316e-02 9.99084115e-03 1.19911050e-02
      1.36985285e-02 1.07529275e-02 1.02240276e-02 3.15032876e-03
      4.45660250e-03 -1.63630806e-02 -1.28908791e-02 7.51085114e-04
      2.03288682e-02 1.94796901e-02 1.29658869e-02 1.66926309e-02
      1.27055235e-02 4.27518412e-03 -2.12862436e-02 -3.97894382e-02
      -1.91868376e-02 1.71463490e-02 1.64419599e-02 1.92041136e-02
      2.35821512e-02 1.23203900e-02 -2.84804404e-03 -2.11160723e-02
      -3.74937728e-02 -2.53791381e-02 2.50907224e-02 2.51151193e-02
      2.20051855e-02 2.80872136e-02 1.84976179e-02 -9.39654559e-03
      -2.67169178e-02 -2.90912818e-02 -8.36636219e-03 2.62782685e-02
      2.78135687e-02 2.30563618e-02 1.60326250e-02 2.19024979e-02
      5.28490311e-03 -2.74811462e-02 -3.33761685e-02 -1.52592771e-02
      3.03000100e-02 3.59310657e-02 2.27771364e-02 9.53857880e-03
      1.72928702e-02 1.58538367e-03 -3.38578112e-02 -4.40891571e-02
      -1.59936883e-02 2.66566109e-02 2.97033545e-02 2.73038018e-02
      1.97417382e-02 2.14708243e-02 4.37365985e-03 -2.04927940e-02
      -1.90608203e-02 5.02219703e-03 3.09002344e-02 3.36635709e-02
      2.43924968e-02 8.67906213e-03 1.51246004e-02 8.85205902e-03
      -3.61509956e-02 -3.35475840e-02 -1.42257335e-02 1.33885583e-02
      2.06253566e-02 4.92959563e-03 -5.86984633e-03 -3.58325243e-03
      -2.54483595e-02 -1.19636329e-02 6.38497667e-03 1.42760733e-02
      8.25572666e-03 2.44096704e-02 9.91391856e-03 -9.43108182e-03
      -7.08655221e-03 -2.24405862e-02 1.04580605e-02 1.66600700e-02
      2.97836065e-02 9.89640784e-03 7.23411702e-03 -7.52570247e-03
      -1.11025739e-02 -7.70285586e-03 -2.11621169e-03 2.78846361e-02
      5.13976701e-02 4.85544167e-02 -5.44470362e-03 -1.80406787e-03
      -1.83962528e-02 -2.54790504e-02 -9.53404326e-03 8.80275201e-03
      -1.67553052e-02 2.79672183e-02 1.13726659e-02 -5.84945607e-04
      7.86410086e-03 3.24683473e-03 -1.15847252e-02 -1.39168622e-02
      -4.36045937e-02 7.10286992e-03 3.61236408e-02 -5.82712609e-03
      -1.70641374e-02 -3.17853056e-02 -1.54005513e-02 -1.73270293e-02
      -2.28653345e-02 -1.64266229e-02 3.72339785e-02 6.91132694e-02
      3.23975943e-02 -1.48568535e-02 -8.54784716e-03 -2.19320394e-02
      -2.51685064e-02 -1.45332078e-02 7.19873747e-03 3.69438082e-02
      6.10888749e-02 1.22002803e-03 -5.07659316e-02 -5.22195771e-02
      -4.28589098e-02 -1.85355339e-02 -7.22257234e-03 2.83156503e-02
      2.04826165e-02 5.21945804e-02 5.38967401e-02 2.68024094e-02
      -7.61737209e-03 -1.11938138e-02 -1.20243551e-02 -8.24047346e-03
      1.89423524e-02 -9.80149861e-03 2.29046959e-02 3.59677970e-02
      9.90840606e-03 -2.86653126e-03 -9.51088674e-04 -9.22842696e-03
      -7.46231433e-03 4.11135470e-03 -5.59016690e-02 -3.51632051e-02
      3.73143554e-02 3.00004371e-02 2.64717191e-02 1.08582359e-02
      -4.32743365e-03 -7.43370736e-03 -3.44087854e-02 -4.26162332e-02
      -5.30985072e-02 -1.99063346e-02 7.51968659e-03 1.05911940e-02
      1.14622181e-02 2.43724184e-03 -1.09904557e-02 -3.25208455e-02
      -1.40046198e-02 -9.64221545e-03 1.72664300e-02 2.57715937e-02
      2.75400691e-02 3.02479323e-02 1.88057031e-02 1.94869880e-02
      1.05307354e-02 -2.96290368e-02 -3.97249423e-02 -6.46045385e-03
      3.73890735e-02 3.07866186e-02 3.66495885e-02 2.09265500e-02
      3.00096441e-02 -2.43798320e-04 -3.04458179e-02 -4.54976186e-02
      -1.41780591e-02 2.31974646e-02 2.33613644e-02 3.08382269e-02
      2.13147048e-02 1.24405930e-02 -1.92238041e-03 -3.22244093e-02
      -4.42091413e-02 -2.23916527e-02 3.11608706e-02 2.87077408e-02
      2.92743929e-02 1.84738692e-02 1.91210173e-02 -8.70784745e-03
      -3.00842877e-02 -4.41655815e-02 -1.33110322e-02 3.91755551e-02
      3.89768369e-02 3.09958141e-02 2.24271696e-02 2.50056386e-02
      8.13216902e-03 -2.09273100e-02 -4.74358685e-02 -2.23943368e-02
      3.48782912e-02 4.21431661e-02 3.34737785e-02 3.49847674e-02
      2.23040972e-02 7.36906519e-03 -3.00896708e-02 -4.92024086e-02
      -2.07638405e-02 3.33551355e-02 3.88334170e-02 2.88740154e-02
      2.35597882e-02 2.05752794e-02 -8.06043099e-04 -2.16266271e-02
      -3.88369858e-02 -1.88591275e-02 3.58613953e-02 4.79152575e-02
      3.32118310e-02 2.36929227e-02 1.99598335e-02 9.65951197e-03
      -2.78037973e-02 -5.44940084e-02 -1.92090515e-02 2.33574286e-02
      2.67513618e-02 1.85750183e-02 2.48003714e-02 1.42332073e-02
      9.45064705e-04 -2.52196956e-02 -3.03110071e-02 -2.14616349e-03
      2.66133919e-02 3.09816208e-02 2.25344524e-02 2.21979097e-02
      1.33142434e-02 -5.18378057e-03 -2.06013378e-02 -1.45623349e-02
      7.43880542e-03 2.32078917e-02 3.20123918e-02 1.78542882e-02
      1.07358675e-02 1.09722447e-02 4.88284137e-03 -4.64583607e-03
      -1.54251105e-03 2.88449973e-02 2.03329697e-02 3.00159864e-02
      1.40184127e-02 7.15613225e-03 9.12429113e-03 -1.00129806e-02
      -4.43055294e-02 -1.61800720e-02 6.70282403e-03 7.45564839e-03
      9.51910764e-03 6.65485684e-04 -3.50922067e-03 -1.61241426e-03
      -1.17312018e-02 -8.33936129e-03 2.04195455e-02 4.76951040e-02
      5.82028972e-03 2.00978410e-03 -7.10768951e-03 -1.11299651e-02
      -3.53309489e-03 -8.48288182e-03 -2.32491903e-02 1.11861024e-02
      3.76919098e-02 5.77296596e-04 -7.67086074e-03 -6.71178894e-03
      -1.32737523e-02 -6.91536861e-03 -1.83804799e-02 -6.71311049e-03
      2.53698751e-02 4.34108786e-02 -1.01248464e-02 -3.37849632e-02
      -8.64394568e-03 -5.11424569e-03 3.25344526e-03 -7.90549256e-03
      1.49542177e-02 2.35943850e-02 4.97793183e-02 -1.02536324e-02
      -3.16823088e-02 -3.54834348e-02 -1.42073371e-02 -1.03838211e-02
      -4.98261210e-03 5.08560352e-02 5.32339476e-02 2.83909980e-02
      -2.88153104e-02 -3.62343565e-02 -4.12803181e-02 -2.90431101e-02
      -1.17672021e-02 1.73616353e-02 5.84045285e-03 3.40913758e-02
      2.99868453e-02 -4.31043953e-02 -4.76046056e-02 -4.22852412e-02
      5.31096535e-04 9.76314768e-03 6.10890891e-03 3.55989560e-02
      5.08918054e-02 1.63361635e-02 -4.38105837e-02 -4.93834540e-02
      -4.44559790e-02 -9.58638359e-03 1.08534060e-02 2.81932894e-02
      4.54207510e-02 5.20404764e-02 9.14236822e-04 -2.62787621e-02
      -1.69223007e-02 -3.58962305e-02 -2.65309326e-02 -2.05318369e-02
      1.06113059e-02 3.63065787e-02 3.74011137e-02 -1.13821039e-02
      -5.21412082e-02 -4.85884733e-02 -4.55781184e-02 -5.19399252e-03
      -3.68653075e-03 2.20017992e-02 3.45021188e-02 3.86840925e-02
      2.34811511e-02 -2.52080578e-02 -2.34073587e-02 -3.29287201e-02
      -2.47613620e-02 -9.79813281e-03 2.03291308e-02 3.10621411e-02
      4.62744497e-02 1.85916331e-02 -4.83033396e-02 -3.29954289e-02
      -4.46389504e-02 -9.59749520e-03 4.17406345e-03 3.77491973e-02
      -4.35692258e-02 -5.95103167e-02 -1.72523279e-02 1.99954715e-02
      4.38357331e-02 3.02756745e-02 2.33783051e-02 1.16478689e-02
      -1.17355287e-02 -4.36285250e-02 -5.89611121e-02 -3.04932054e-02
      5.84890880e-03 1.31516764e-02 5.23621310e-03 3.44726979e-03
      -3.89488973e-03 -1.14882207e-02 3.55583872e-03 -4.03654836e-02
      -2.98644863e-02 -6.65105553e-03 7.69330002e-03 1.27106607e-02
      4.24391925e-02 5.89618571e-02 4.21265550e-02 2.45826859e-02
      -2.80416831e-02 -2.41452660e-02 -7.31157884e-03 -1.04545765e-02
      -1.37659591e-02 -7.00994534e-03 2.58236788e-02 3.40287425e-02
      -3.82272005e-02 -5.70446514e-02 -1.44897029e-02 8.80705472e-03
      1.01842424e-02 8.29917006e-03 7.31170597e-03 3.42647918e-03
      2.57458305e-03 -2.58693565e-02 -4.85294648e-02 -2.11603083e-02
      1.77129060e-02 1.74307227e-02 8.04838724e-03 6.12754840e-03
      1.24444673e-03 -1.02769369e-02 3.30377035e-02 -1.93308499e-02
      -1.75532922e-02 -2.53706297e-04 -2.43627699e-03 2.01862724e-03
      -7.07714539e-03 4.53859102e-03 3.90815362e-02 2.19365638e-02
      2.30806526e-02 -2.00882014e-02 8.24008789e-03 1.48179438e-02
      9.27351415e-03 4.66724718e-03 -4.99187852e-04 2.56764404e-02
      -3.56405713e-02 -4.73322384e-02 -1.46717187e-02 1.40975025e-02
      1.64596345e-02 1.06955171e-02 5.09842345e-03 -2.94437003e-03
      -2.26985011e-02 -1.12943994e-02 3.76561680e-03 1.73319262e-02
      1.56363249e-02 2.09761634e-02 1.40801789e-02 4.12260788e-03
      -4.38097725e-03 -1.46869719e-02 1.19807422e-02 2.19918676e-02
      1.06028179e-02 9.96782072e-03 1.33401528e-02 7.15990085e-03
      3.09496722e-03 -3.86578566e-03 -9.19139385e-03 6.92768162e-03
      3.03694103e-02 6.41771108e-02 1.01644648e-02 1.24262981e-02
      7.58164190e-03 1.04331202e-03 -5.62864263e-03 -2.72567142e-02
      -2.00954247e-02 -2.42070062e-03 4.13851589e-02 6.97263144e-03
      9.52056888e-03 4.88966843e-03 1.11483468e-03 -7.13350018e-03
      -2.61854585e-02 -2.88259052e-02 -1.94877805e-03 5.61518744e-02
      -2.32459730e-04 5.58731658e-03 3.15594464e-03 1.28514657e-03
      -3.50368163e-03 -3.51814069e-02 -1.41899278e-02 4.68648821e-02
      7.70403966e-02 2.76146317e-03 7.70485960e-03 9.50616412e-03
      3.64282262e-03 -1.01044336e-02 -5.61195835e-02 -3.60498242e-02
      5.56634404e-02 5.42995073e-02 4.07635607e-03 9.98776685e-03
      1.63864084e-02 6.23978954e-03 -8.25114455e-03 -5.77184632e-02
      -4.34716828e-02 1.84867121e-02 5.76902479e-02 -3.99375381e-03
      -7.30014965e-03 -1.48351409e-03 9.01185093e-04 5.57262404e-03
      -2.13641599e-02 -2.59271376e-02 3.45292538e-02 3.70377675e-02
      -1.17128408e-02 -3.33577879e-02 -2.81344564e-03 7.28488667e-03
      2.04991568e-02 -1.38088549e-02 -3.89130339e-02 5.46085238e-02
      4.65327762e-02 2.87073688e-03 9.83852707e-03 1.35684581e-02
      1.39868595e-02 1.64521614e-03 -5.18554337e-02 -1.71699412e-02
      4.83976752e-02 5.26157245e-02 -1.51038570e-02 -1.61733553e-02
      -6.90399174e-05 1.47198262e-02 1.53463576e-02 -3.99481170e-02
      2.85071996e-03 5.14234938e-02 1.84545238e-02 -5.48517480e-02
      -5.45627959e-02 -3.67164165e-02 1.21054624e-03 7.65507063e-03
      -5.10891620e-03 4.08740602e-02 7.12023452e-02 5.38074933e-02
      -5.47890589e-02 -5.79888932e-02 -3.78871486e-02 -1.38485692e-02
      -2.72266311e-03 1.60523728e-02 -5.34209330e-03 5.94359748e-02
      5.08300513e-02 -5.65189347e-02 -5.63571341e-02 -2.29760129e-02
      -3.30396928e-03 -9.01499472e-04 -3.76324877e-02 1.94016472e-02
      6.20115995e-02 5.19308038e-02 -4.91052568e-02 -4.16918695e-02
      -2.17784159e-02 -2.07130741e-02 -8.30583367e-03 -2.66008568e-03
      4.00745533e-02 4.87558953e-02 4.07211855e-02 -1.90290287e-02
      -2.48194989e-02 -2.96283364e-02 -3.11523769e-02 -1.53589817e-02
      6.07463391e-03 3.93894240e-02 4.35933620e-02 2.63226796e-02
      -2.47958470e-02 -1.28533468e-02 -3.77395973e-02 -2.12119408e-02
      -1.04526663e-02 1.15860095e-02 3.93818133e-03 4.41699699e-02
      3.10735144e-02 -1.52808717e-02 -6.75457064e-03 -1.28495898e-02
      -2.28939820e-02 -9.72600002e-03 -1.42177520e-02 -2.41333582e-02
      -1.16638271e-02 -1.12645030e-02 3.23239993e-03 8.29671137e-03
      -1.95866600e-02 -2.00096164e-02 -3.06285769e-02 -3.60517390e-02
      2.09442936e-02 -1.77681968e-02 -1.78379845e-02 -9.65920929e-03
      -1.61524881e-02 -1.29592270e-02 1.79547481e-02 4.57514860e-02
      3.79073471e-02 2.85075251e-02 -2.19683275e-02 -1.88052449e-02
      -1.23126181e-02 -2.05043647e-02 -1.61796957e-02 -1.42001100e-02
      1.56547595e-02 2.94099245e-02 -4.70969779e-03 -2.24455371e-02
      -1.08023675e-03 -3.58781847e-03 -1.17302351e-02 -1.31987277e-02
      6.47856714e-03 1.10075073e-02 -2.42612534e-03 1.68419664e-03
      -2.81005409e-02 -5.47776697e-03 -1.01783988e-03 -7.11295707e-03
      -1.18831499e-02 2.87099206e-03 -1.19817508e-02 -3.95823224e-03
      2.72833351e-02 -1.02231337e-03 -8.49170145e-03 -1.08503914e-02
      -1.28455786e-02 -6.02695718e-03 -1.54065406e-02 -1.00867739e-02
      2.39545815e-02 3.95614142e-03 2.60178261e-02 -1.48692774e-02
      -1.23504521e-02 -1.03702815e-02 -4.34126938e-03 -8.28885008e-03
      -1.14704194e-02 -2.22900137e-03 6.72176620e-03 -1.90361813e-02
      2.18645335e-04 7.73187261e-04 2.70550861e-03 -2.75028194e-03
      3.56812356e-03 -1.29165258e-02 -1.62187766e-03 2.49456638e-03
      1.27002392e-02 2.79918755e-03 -4.77664731e-03 4.69102262e-04
      1.80699141e-03 7.32198916e-03 -1.26955034e-02 -6.00853702e-03
      4.25401516e-03 4.38256338e-02 7.96788745e-03 4.56350826e-04
      -5.87186718e-04 1.12639368e-03 -2.75310158e-04 -9.32724494e-03
      -3.24800685e-02 -2.66786315e-03 4.56848219e-02 3.29453126e-02
      5.25802886e-03 4.79053333e-03 1.24285556e-03 -8.69499694e-04
      -8.48313700e-03 -4.82898727e-02 -1.38749951e-04 3.89142372e-02
      9.33774747e-03 2.14142765e-05 3.08236899e-03 1.14834104e-02
      6.52714306e-03 -1.72211491e-02 -1.96522977e-02 -2.12985091e-03
      2.71868948e-02 2.73354780e-02 6.62804674e-03 5.88750513e-03
      6.73727179e-03 -1.29555294e-03 -2.96847150e-02 -1.85028650e-02
      -3.83114107e-02 3.51848938e-02 1.98838841e-02 -5.65170776e-03
      4.97331470e-03 7.64143793e-03 -3.26730107e-04 -1.11568253e-02
      -6.02062419e-02 -2.13499814e-02 6.82290718e-02 3.41393836e-02
      -4.70906962e-03 -2.13433313e-03 6.09633885e-03 -5.74148074e-03
      -1.36681711e-02 -4.79398184e-02 5.99850435e-03 4.28081304e-02
      3.93394418e-02 -6.39650784e-03 2.00203038e-03 -4.13656933e-03
      -8.44464451e-03 -2.61047967e-02 -3.32203992e-02 9.46879480e-03
      4.57977951e-02 6.54492974e-02 -5.97500615e-03 -3.27034481e-03
      -9.26274713e-03 -1.03659350e-02 -1.77817717e-02 -2.24438235e-02
      -2.72050947e-02 6.56807125e-02 5.81765063e-02 -1.08427107e-02
      -4.01041051e-03 -3.98963550e-03 -8.30446091e-03 -1.62891764e-02
      -5.32154031e-02 -2.07066387e-02 5.65671995e-02 5.64138219e-02
      -2.18702219e-02 -1.18220933e-02 -7.75104668e-03 -1.28252553e-02
      -1.05152214e-02 -4.96291406e-02 -5.27564203e-03 4.86888923e-02
      6.49459660e-02 -3.35967285e-03 3.13503318e-03 -1.82243728e-03
      -5.96490270e-03 -1.32074403e-02 -4.05212417e-02 -3.04765254e-02
      3.44132669e-02 3.45333666e-02 -6.98159961e-03 1.43200695e-03
      -2.19181413e-03 -9.36540309e-03 -1.78519469e-02 -4.78352532e-02
      1.39823544e-03 4.99603525e-02 4.41218503e-02 -1.88187100e-02
      -1.57474133e-03 -2.91214732e-04 -1.26126576e-02 -9.01101623e-03
      -2.45739222e-02 1.05785895e-02 4.86124232e-02 3.09016760e-02
      -8.57193209e-03 1.31522045e-02 3.09816888e-03 -1.61222517e-02
      -1.09342691e-02 -4.52538207e-03 -1.49641484e-02 1.24052223e-02
      1.13668218e-02 4.97358060e-03 -3.12878494e-03 -1.47843771e-02
      -1.87475197e-02 -2.18358655e-02 -2.10701358e-02 -4.81262710e-03
      3.38003435e-03 7.96560271e-05 3.85814492e-04 9.05383844e-03
      -9.96151380e-03 -2.13870853e-02 -1.73202753e-02 -8.38294346e-03
      2.78842775e-03 9.02872067e-03 -5.92577853e-04 -1.24012644e-04
      2.52541844e-02 7.70160649e-03 -3.19704623e-03 -9.10464092e-04
      -1.46741560e-03 -1.94578748e-02 -2.27862149e-02 -1.60686765e-03
      3.43931243e-02 4.73373979e-02 1.54558318e-02 2.95654696e-04
      -1.22809904e-02 -2.16855276e-02 -7.76960934e-03 -6.91215135e-03
      -8.62522051e-03 1.49243441e-03 9.11845826e-03 1.70312109e-04
      -7.60301994e-03 -1.11242197e-02 -8.94775707e-03 -2.08368544e-02
      -3.09748426e-02 -1.08779194e-02 1.19839925e-02 1.67932175e-02
      1.57216955e-02 -8.05388484e-03 -6.82758214e-03 -1.19257048e-02
      9.41272639e-03 -1.82482917e-02 -2.84468289e-04 -1.81683106e-03
      -4.85861348e-03 -9.38908290e-03 -2.85280781e-04 2.21756380e-02
      1.17222872e-02 1.13664251e-02 -1.68968718e-02 -1.50626845e-04
      -5.09776687e-03 -4.67236619e-03 -5.11070481e-03 1.48698653e-03
      2.03662668e-03 1.11626731e-02 1.06998486e-02 -2.08115801e-02
      -2.16433383e-03 -9.88884945e-04 -1.33859878e-02 -1.15970355e-02
      -1.68611426e-02 -1.06205698e-02 1.15053151e-02 1.75205413e-02
      -6.61836984e-03 8.92239506e-04 -2.87367124e-03 -1.04342699e-02
      -1.74716522e-03 -9.66714229e-03 -1.14223715e-02 1.39658265e-02
      9.02028661e-03 -2.20220331e-02 -4.92256880e-03 -7.11776270e-03
      -3.43443407e-03 -4.23757080e-03 2.81947106e-03 -6.04379876e-03
      7.53576728e-03 7.67929340e-03 2.33996734e-02 -6.33652834e-03
      -1.00016445e-02 -2.09617801e-03 -4.34892392e-03 2.91336537e-03
      -8.70313402e-03 4.35176771e-03 1.90045331e-02 -9.51058604e-03
      3.61639541e-03 -7.36845098e-03 -4.56507225e-03 -4.93310997e-03
      -1.33892391e-02 -1.43628344e-02 1.73126776e-02 1.24798957e-02
      6.53485395e-03 -8.18277057e-03 -1.09965671e-02 -3.89381452e-03
      -1.46484151e-02 -1.94980018e-02 -1.32902171e-02 1.78961344e-02
      5.98876690e-03 4.21318449e-02 4.23445235e-05 -8.11612979e-03
      -2.16633454e-03 -3.06545827e-03 -3.03945458e-03 -1.84858069e-02
      -1.73787656e-03 3.64854024e-03 2.66205054e-02 1.20663550e-02
      -8.17989558e-03 -2.69275554e-03 -3.19143268e-03 -9.16228350e-03
      -3.40068415e-02 -1.00038256e-02 9.94360913e-03 2.04744097e-02
      -8.09943583e-03 -4.11212817e-03 -3.13904509e-03 -1.16826249e-02
      -1.57421660e-02 -3.82025703e-03 1.56548787e-02 9.25951079e-03
      1.74351148e-02 -1.08035738e-02 -8.58848449e-03 -9.30829439e-03
      -2.77011795e-03 -1.43504106e-02 -1.33370878e-02 -4.02295822e-03
      1.90932653e-03 2.82100514e-02 2.77945492e-02 -6.80092769e-03
      1.76452729e-03 -6.86878688e-04 -4.87201102e-03 -2.08702385e-02
      -2.16786955e-02 2.80260318e-03 2.52482556e-02 3.00986003e-02
      1.73326628e-03 8.50790553e-03 -1.35461276e-03 -1.48470677e-03
      -1.54654752e-03 -2.32534148e-02 7.24505680e-03 1.26939360e-02
      -1.96822686e-03 -7.23646302e-03 -2.09681923e-03 8.09613243e-03
      -4.56146291e-03 -8.72681569e-03 -3.51614109e-03 -4.77797538e-03
      -9.64915939e-03 -5.69768110e-03 -7.88156781e-03 2.32323003e-03
      8.01937375e-03 6.78616110e-03 9.82683152e-03 -6.05600094e-03
      -1.33265248e-02 1.59530248e-02 1.98734161e-02 1.13905352e-02
      2.29007453e-02 1.65498890e-02 1.61992013e-02 1.01453597e-02
      -2.26177387e-02 -2.12309118e-02 -5.46057243e-03 7.42816366e-03
      -2.83453555e-04 4.87517007e-03 8.98884516e-03 1.18350936e-02
      -8.68954463e-04 -2.58179028e-02 3.81499063e-03 -1.18373623e-02
      -1.25236465e-02 7.02550111e-04 1.81278028e-02 1.46212643e-02
      2.06544045e-02 1.36456899e-02 -5.21328906e-03 3.87285976e-03
      -5.31862210e-03 -1.30388718e-02 -1.22856125e-02 -4.22324380e-03
      1.44430972e-03 1.31566869e-02 1.11073283e-02 -2.37971661e-03
      -1.20465066e-02 1.03266360e-02 1.76839493e-02 1.41555548e-03
      -1.22508863e-02 -9.16009489e-03 -2.47203931e-03 5.17138001e-03
      -1.68955680e-02 -2.88703432e-03 8.61368049e-03 8.56781658e-03
      1.08725121e-02 3.01164784e-03 6.63557730e-05 4.60893661e-03
      5.25901280e-03 -6.13423437e-03 -9.65963025e-03 1.67242996e-02
      1.73523147e-02 5.38951298e-03 -4.31197742e-03 1.72314094e-03
      8.53653252e-03 1.28231570e-02 -9.23131593e-03 -1.79412458e-02
      3.64565616e-03 8.35568924e-03 2.69624759e-02 1.31828403e-02
      1.41733289e-02 1.15843415e-02 5.83712198e-03 -1.87187400e-02
      -1.08238952e-02 -2.52580829e-03 5.98846329e-03 1.82213839e-02
      1.99159067e-02 1.86739434e-02 5.65043511e-03 5.98507887e-03
      -7.77778309e-03 1.81874644e-03 -1.39618823e-02 -6.64347364e-03
      -2.37203832e-03 -4.68683988e-03 5.14526106e-03 7.97297154e-03
      2.30993088e-02 1.06152408e-02 -2.46848930e-02 -4.41002566e-03
      5.51161775e-03 2.24232860e-02 3.13148052e-02 2.60551311e-02
      1.30172651e-02 1.41611760e-02 -2.27938462e-02 -1.31817628e-02
      -6.54100999e-03 -7.52692251e-03 -1.37042999e-02 -2.38927943e-03
      5.60423452e-03 1.61484741e-02 1.97680816e-02 -1.41541846e-02
      -8.81323218e-03 -7.79381813e-03 -2.87515973e-03 -3.12957703e-03
      -8.96876492e-03 -4.10828507e-03 -1.65975094e-02 -2.06216089e-02
      -2.39040181e-02 1.60392869e-04 2.69753131e-04 6.57962519e-04
      -1.26880419e-03 -5.65121043e-03 -8.21078895e-04 -1.11401156e-02
      -1.62458830e-02 -1.45092849e-02 2.72340104e-02 2.05240976e-02
      2.92334482e-02 3.23067326e-03 -4.24691716e-05 -3.72884492e-03
      -1.28397513e-02 -2.74406932e-02 1.74330864e-02 2.70566009e-02
      3.32119083e-03 6.04413496e-03 1.72936323e-03 1.95814110e-03
      -6.83374098e-03 -1.48954839e-02 -1.76184326e-02 1.53805679e-02
      1.16405438e-03 -1.91083038e-03 3.29726585e-03 -1.59715663e-03
      -2.38348520e-03 -2.93347146e-03 -9.20980051e-03 -1.63849667e-02
      -8.32232181e-03 -2.45627388e-03 -2.27637077e-03 -2.80655385e-03
      -4.84953448e-03 -5.66946063e-03 -6.21280866e-03 -9.34414472e-03
      -8.85512028e-03 -2.39917729e-03 3.48128080e-02 -2.51198770e-03
      -5.28844120e-03 -6.05174154e-03 -7.83414859e-03 -5.58264041e-03
      -1.28232613e-02 -1.31606413e-02 2.18859483e-02 2.89175473e-02
      -6.98210159e-03 -9.15830024e-03 -1.34401806e-02 -1.30088311e-02
      -4.20655729e-03 -1.29543366e-02 -1.19791087e-02 1.85371432e-02
      3.08729755e-03 3.37645807e-03 1.60932948e-04 1.73937716e-03
      8.41910311e-04 -2.77159642e-03 -7.00106565e-03 -5.96078392e-03
      1.48443237e-03 3.76746268e-03 3.28063895e-03 1.25489978e-03
      8.34249309e-04 -3.71641922e-03 -1.99951185e-03 -3.34354746e-03
      -2.51726410e-03 8.18091631e-03 1.97503809e-02 -1.59297008e-02
      -9.11750551e-03 -7.18488591e-03 -6.33487199e-03 -3.28034465e-03
      -1.20534673e-02 -1.07769882e-02 2.33261231e-02 2.23748349e-02
      -2.05418598e-02 -4.50549601e-03 -7.72772497e-03 -4.60667722e-03
      -6.08497905e-03 -1.43006360e-02 -5.08516049e-03 1.59629546e-02
      -2.11259746e-03 -2.63956957e-03 -3.74960061e-03 -4.76285210e-03
      -4.78714984e-03 -1.72158598e-03 -1.51119067e-03 -6.56297617e-03
      1.20858534e-03 -1.17796008e-02 -7.77988741e-03 -9.62948147e-03
      -7.07530323e-03 -3.63919535e-03 4.47150180e-03 2.69197859e-03
      -1.40230614e-03 -6.16026996e-03 2.01765895e-02 -2.18050536e-02
      -5.65027120e-03 -6.74364669e-03 -6.58316817e-03 -1.29619436e-02
      -1.12479124e-02 1.96558307e-03 1.84668787e-02 1.93002652e-02
      -1.60078239e-02 -8.57246388e-03 -3.96555942e-03 -5.66397235e-03
      -2.36348994e-03 -2.08205730e-03 1.00395614e-02 2.00248323e-02
      -1.17714880e-02 -6.48482423e-03 -1.07591338e-02 -6.17804658e-03
      -3.68762901e-03 -1.80619908e-03 -8.14220170e-04 -3.58485291e-03
      -1.18820658e-02 -1.54454038e-02 -6.02860702e-03 -1.34318685e-02
      -6.07841788e-03 -4.59398422e-03 -3.94393597e-03 -2.40238893e-04
      -6.02908852e-03 -1.49136772e-02 1.85226072e-02 -7.89278001e-03
      -5.98688750e-03 -5.09171002e-03 -1.45885339e-02 -4.75007296e-03
      -2.47516320e-03 3.55248619e-03 2.07551122e-02 1.60061233e-02
      -1.01426085e-02 -5.60513092e-03 -5.59310708e-03 -1.14829540e-02
      -4.16076882e-03 6.81958918e-04 8.27989355e-03 1.98451392e-02
      -2.47381367e-02 -5.05118864e-03 -7.52903195e-03 2.10451009e-03
      9.86958737e-04 2.17150431e-03 3.86253605e-03 -3.48669128e-03
      -1.75872035e-02 -5.32879345e-02 -9.87732690e-03 -1.20440526e-02
      4.42858459e-03 6.03778695e-04 3.94578977e-03 5.72925759e-03
      -7.88876321e-03 -4.05716039e-02 1.00454120e-02 -5.59491012e-03
      -6.74430979e-03 2.58756685e-04 1.09786913e-02 1.05050802e-02
      2.18582172e-02 3.20634618e-02 1.19368676e-02 -6.90386258e-03
      -4.10729414e-03 -2.83409609e-03 5.03519317e-04 1.68171544e-02
      1.22225238e-02 2.36584079e-02 2.05576308e-02 6.95643015e-03
      -3.46725695e-02 7.86959019e-04 -1.59149605e-03 9.37472470e-03
      1.51217859e-02 1.44098746e-02 1.43581964e-02 9.90160159e-04
      -3.29549611e-02 -1.52473319e-02 3.83499148e-03 -1.39801751e-03
      4.15738951e-03 1.10951476e-02 3.58703639e-03 1.44115987e-03
      -1.00121070e-02 -2.84228269e-02 1.00171939e-02 8.38057976e-03
      9.69950296e-03 1.37992445e-02 1.36549789e-02 -4.07432817e-04
      1.17387716e-02 9.16832872e-03 3.70042888e-03 3.70283565e-03
      -7.15998758e-04 3.67717980e-03 1.33119114e-02 1.18648103e-02
      -4.34783287e-03 5.67769585e-03 2.11086660e-03 1.56693719e-02</_>
    <_>
      -7.27144722e-03 -1.18526723e-03 6.34455960e-03 1.13349399e-02
      1.57181527e-02 2.49292539e-03 -4.79330280e-04 2.74720904e-03
      2.35853321e-03 3.89873120e-03 -1.18718739e-03 7.68748438e-03
      1.25483731e-02 1.70724615e-02 -2.09476077e-03 5.77130297e-04
      3.13971611e-03 -4.19267826e-03 -1.84396300e-02 -1.86152197e-02
      -1.60764391e-03 1.13794953e-02 1.45846121e-02 6.60871295e-03
      8.40431917e-03 7.27983098e-03 -2.15309067e-03 -9.94987506e-03
      -1.39772249e-02 4.55106050e-03 1.70236174e-02 1.21442489e-02
      6.56824978e-03 5.91639290e-03 5.50467800e-03 -4.24793502e-03
      4.37062979e-03 -4.57026344e-03 2.26283353e-03 4.60576452e-03
      8.40441883e-03 -1.71922450e-03 6.90483896e-04 9.99047328e-03
      1.13013899e-02 1.40301716e-02 -8.64621438e-03 -6.14214048e-04
      2.81389360e-03 1.04904752e-02 4.53243777e-03 1.35644991e-02
      1.98428389e-02 1.46625089e-02 -2.25688908e-02 -2.08369568e-02
      4.08959761e-03 7.56713655e-03 3.09836026e-03 -3.41955805e-04
      3.10204719e-04 1.32592767e-03 -8.41638073e-03 -1.92493964e-02
      -1.67423543e-02 6.32070238e-04 6.96678180e-03 1.17597906e-02
      7.12816138e-03 1.14131505e-02 1.38270557e-02 -9.52522736e-03
      1.98962428e-02 -1.04531720e-02 -3.45486705e-03 1.07954571e-03
      4.18552710e-03 6.07014447e-03 8.81119166e-03 1.97490919e-02
      2.31686663e-02 1.75064486e-02 -1.58036258e-02 -1.32484250e-02
      8.82705150e-04 5.14635257e-03 3.97849036e-03 6.39052037e-03
      2.31665950e-02 2.05626711e-02 -2.22183876e-02 -2.38393527e-02
      -1.08837169e-02 3.89243872e-03 1.05686756e-02 9.53386910e-03
      1.15167107e-02 1.41584976e-02 -7.05738878e-03 -2.17444282e-02
      -1.64163318e-02 -7.10439682e-03 6.59032445e-03 1.31319845e-02
      1.00835068e-02 1.20576890e-02 1.21720387e-02 -1.15057081e-02
      1.89187527e-02 -9.56218969e-03 -8.56567267e-03 1.76567573e-03
      5.22096176e-03 1.77766033e-03 4.63236449e-03 1.68107450e-02
      2.28195284e-02 1.14510935e-02 -2.76696007e-03 -1.44113798e-03
      3.57581535e-03 9.03180055e-03 2.48327875e-03 4.48816083e-03
      1.13908825e-02 2.20011212e-02 -2.35559195e-02 -8.74825660e-03
      -6.67863525e-03 7.66641507e-03 7.97318667e-03 6.47288933e-03
      8.61197244e-03 7.85438810e-03 -1.57210454e-02 -2.25795265e-02
      -5.85046597e-03 -2.50430848e-03 9.01203137e-03 8.32164846e-03
      7.61538092e-03 9.00948700e-03 7.01636262e-03 -1.34148737e-02
      1.25987725e-02 -6.70180703e-03 4.23710607e-03 3.89501872e-03
      8.07592366e-03 2.51272088e-03 3.82149918e-03 4.61560814e-03
      2.29117963e-02 1.25987725e-02 -2.81938212e-03 5.13812527e-03
      3.55605897e-03 5.65885846e-03 2.93621747e-03 3.63418902e-03
      2.40799086e-03 1.51998699e-02 -2.42116917e-02 -8.52985773e-03
      6.15192857e-03 7.17900600e-03 7.13128969e-03 6.47913432e-03
      7.26637337e-03 2.15237984e-03 -1.77363642e-02 -2.25112271e-02
      -1.46570173e-03 1.00699412e-02 8.82957038e-03 1.00125810e-02
      6.63247518e-03 4.95865755e-03 -4.46589343e-04 -2.25639306e-02
      1.41520835e-02 -1.55143975e-03 3.13465577e-03 2.40262900e-03
      2.89135892e-03 3.03123146e-03 7.15318543e-04 -1.07909681e-03
      1.69942081e-02 1.64513048e-02 8.07249360e-03 7.80367339e-03
      4.55052126e-03 4.67727706e-03 2.73872050e-03 -6.27938571e-05
      -7.10162055e-03 1.41520835e-02 -2.58143041e-02 2.51310458e-03
      8.45976081e-03 7.78133981e-03 9.53499600e-03 7.01665226e-03
      9.71574394e-04 -4.87134932e-03 -2.33891066e-02 -2.42153928e-02
      4.47663013e-03 1.02212830e-02 9.03995801e-03 1.17470883e-02
      9.11425799e-03 -2.23504985e-03 -1.57159120e-02 -2.26212684e-02
      1.65055431e-02 3.05937231e-02 1.53528554e-02 6.33642171e-03
      6.59103366e-03 1.73117546e-03 -1.81107852e-03 -1.20251803e-02
      5.78411436e-03 1.55360634e-02 3.68414633e-02 2.64291242e-02
      1.27519183e-02 1.13414004e-02 4.55159554e-03 -4.27891128e-03
      -1.21785561e-02 -3.63122020e-03 -1.40242698e-02 4.57568374e-03
      8.03533010e-03 8.91263504e-03 1.05454354e-02 5.69009641e-03
      -6.16707280e-03 -2.25976165e-02 -2.71612871e-02 -1.20662237e-02
      2.02259538e-03 7.55288824e-03 1.05033433e-02 8.86247959e-03
      4.85787215e-03 -1.05872611e-02 -2.53208037e-02 -2.99831498e-02
      -5.30167203e-03 -2.71016993e-02 -1.46020111e-02 4.01615584e-03
      7.91066047e-03 2.71653943e-03 -6.25098124e-04 3.45366052e-03
      1.04462868e-02 -1.11048296e-02 -2.41407398e-02 -5.24923066e-03
      7.67246820e-03 5.78025449e-03 3.45808896e-03 -2.75811832e-03
      2.07082345e-03 4.75449488e-03 4.22451552e-03 -3.92613886e-03
      1.04037011e-02 7.61106098e-03 6.39995094e-03 2.90497905e-04
      -7.38969655e-04 3.07305111e-03 1.58287957e-02 -7.48702732e-04
      -2.18434865e-03 1.23678148e-02 7.29506649e-03 6.63996115e-03
      3.80136468e-03 -1.78681186e-03 5.32153668e-03 1.31599912e-02
      -1.02200182e-02 -1.68293323e-02 6.27900613e-03 1.39337126e-02
      1.38387214e-02 1.07018342e-02 5.33289602e-03 8.81465897e-03
      5.30757662e-03 -9.21105966e-03 -1.35466326e-02 -4.41604014e-03
      6.56059431e-03 1.75065212e-02 1.65061578e-02 1.50916651e-02
      1.60699580e-02 1.34192302e-03 -2.36101658e-03 -7.90707581e-03
      1.73209922e-03 3.54352919e-03 1.20874243e-02 1.25893531e-02
      6.11982122e-03 1.04017034e-02 9.31047741e-03 -1.00811035e-03
      -8.93798191e-03 -5.87075343e-03 7.09063886e-03 1.44359991e-02
      1.63891166e-02 1.11524379e-02 1.06209647e-02 6.58622757e-03
      -7.48929055e-03 -1.76650509e-02 -3.78049887e-03 9.20761656e-03
      1.95154864e-02 1.85776800e-02 1.78815480e-02 1.72682405e-02
      1.19022233e-03 -2.12524086e-03 -1.34955943e-02 4.15530056e-03
      1.54294809e-02 2.21095942e-02 1.96755286e-02 1.75214503e-02
      8.60206969e-03 -4.18449548e-04 -1.89264864e-03 -1.01849269e-02
      -4.71185334e-03 4.28134250e-03 1.89180244e-02 1.89932641e-02
      1.30931139e-02 1.02950605e-02 3.78470379e-03 7.91476807e-04
      -1.54604055e-02 -1.64899323e-03 8.93042888e-03 2.26833448e-02
      2.01044045e-02 1.78203285e-02 8.00921302e-03 1.40028089e-04
      -8.38750415e-03 -5.07112499e-03 4.12969664e-03 1.83097813e-02
      1.91041101e-02 1.61009412e-02 1.56119848e-02 7.88855646e-03
      -7.13545969e-03 -1.60684194e-02 -2.93232012e-03 3.85535508e-03
      2.02777311e-02 2.03355849e-02 1.97178125e-02 1.92358587e-02
      8.93436652e-03 -4.44365479e-03 -4.46443446e-03 -9.62739438e-03
      -2.86631449e-03 1.39900735e-02 1.83973704e-02 1.54758887e-02
      1.62487030e-02 6.52512303e-03 -5.43578062e-03 -1.16530871e-02
      -6.15170645e-03 -1.21065590e-03 1.78307965e-02 1.96735170e-02
      1.79279596e-02 1.53497560e-02 3.64210713e-03 -5.47056831e-03
      -1.78735256e-02 -3.12023889e-03 1.08204195e-02 1.83032248e-02
      1.78841408e-02 1.87572762e-02 1.48844002e-02 5.05220378e-03
      -7.09428079e-03 -1.33862635e-02 6.58336096e-04 1.53956022e-02
      2.13992540e-02 2.35526524e-02 1.99389458e-02 9.94571764e-03
      3.39342048e-04 -1.27921561e-02 -1.75075363e-02 -1.61997299e-03
      2.26842100e-03 1.80500560e-02 1.84693430e-02 1.89165100e-02
      1.06995059e-02 -1.75680954e-03 -7.78294634e-03 -1.12536475e-02
      5.36851911e-03 1.44795617e-02 2.18834206e-02 2.11695377e-02
      2.04505399e-02 4.11605649e-03 -3.82082118e-03 -1.26282247e-02
      -1.64093599e-02 4.82325861e-03 1.14576863e-02 1.48951840e-02
      1.81816127e-02 1.49601176e-02 4.97786188e-03 -6.37055095e-03
      -2.08716504e-02 -9.88017768e-03 1.38334436e-02 1.50722703e-02
      1.32409083e-02 2.13859323e-02 1.54366661e-02 -2.56191506e-05
      -2.01062877e-02 -1.56261642e-02 -2.78410560e-04 2.34540030e-02
      2.58204527e-02 1.38516827e-02 1.50156878e-02 1.23174209e-02
      -1.41641428e-03 -1.29718985e-02 -1.74006801e-02 2.67825159e-03
      2.94267405e-02 3.36410329e-02 8.73074587e-03 1.12153878e-02
      8.71202629e-03 -6.40041055e-03 -2.31496748e-02 -6.04281388e-03
      -4.32329951e-03 1.40048256e-02 1.08132791e-02 8.67050234e-03
      1.20217092e-02 7.17025390e-03 -8.18602368e-03 -2.78965198e-02
      -1.84601080e-02 1.44545930e-02 2.06900407e-02 1.16950190e-02
      1.00137256e-02 8.23450461e-03 6.74057100e-03 -1.37909837e-02
      -2.76885200e-02 -8.20301753e-03 1.34958951e-02 3.51754874e-02
      2.66617946e-02 4.23318148e-03 2.74253613e-03 3.65241012e-03
      -1.25483135e-02 -2.89041530e-02 -6.16459036e-03 2.02003587e-02
      3.40561196e-02 1.73627064e-02 6.07080758e-03 4.77064517e-04
      4.73149773e-03 -1.97489820e-02 -2.82522850e-02 3.22112604e-03
      2.81348545e-03 2.48935679e-03 1.29219610e-02 1.66413318e-02
      6.46994961e-03 -1.22578361e-03 3.16677825e-03 -1.24491192e-03
      1.57132149e-02 -3.43131437e-03 -2.04606052e-03 3.39918700e-03
      2.93073431e-03 6.14221161e-03 4.49031079e-03 3.69529566e-03
      3.57775437e-03 1.17767630e-02 -1.27097704e-02 -7.74007756e-03
      4.05343436e-03 1.48218926e-02 9.27578565e-03 4.46035620e-03
      2.38081557e-03 -1.43068715e-03 -2.57194019e-03 -9.22489353e-03
      -1.98859405e-02 -1.65445730e-02 -3.23119410e-03 -4.80315997e-04
      4.77396231e-03 1.92509324e-03 1.03087910e-03 4.06999048e-03
      8.56694998e-04 -6.59778481e-03 -5.06360643e-03 2.57360307e-03
      1.05840825e-02 1.51519664e-02 1.18426625e-02 1.38954697e-02
      1.37694608e-02 1.96526293e-03 -6.72224257e-03 -5.01696952e-03
      1.11619467e-02 9.83241480e-03 1.65466294e-02 1.42775169e-02
      1.38592627e-02 9.48272180e-03 1.69020065e-03 -1.73057243e-02
      -1.98471826e-02 -3.46149108e-03 3.03015742e-03 1.13214403e-02
      1.10955145e-02 1.33412601e-02 1.29077518e-02 -6.15334837e-03
      -1.51680307e-02 -1.40966084e-02 3.17698554e-03 3.13959434e-03
      1.18881669e-02 1.48770669e-02 1.50117530e-02 3.35691799e-03
      -1.77610142e-03 -1.19620748e-02 -6.30911486e-03 8.09910893e-03
      1.60283111e-02 1.59625858e-02 1.43874297e-02 1.00863306e-02
      5.33798756e-03 -1.70776818e-03 -1.56837013e-02 -5.34882350e-03
      6.76207105e-03 1.98881608e-02 1.72442757e-02 1.59539841e-02
      1.10880937e-02 -9.05753754e-04 -9.84148216e-03 -1.44196460e-02
      -9.28818434e-03 2.04190938e-03 1.23340264e-02 1.23904813e-02
      1.41469408e-02 1.24141956e-02 -1.39601994e-03 -5.73418010e-03
      -7.89012294e-03 -6.41397899e-03 5.71029866e-03 1.20235588e-02
      1.15431761e-02 6.19792426e-03 6.00068178e-03 -8.25228344e-05
      -5.06650330e-03 -1.53045505e-02 -7.57697830e-03 4.53781290e-03
      1.30368732e-02 1.13794133e-02 1.08315470e-02 5.06679574e-03
      -7.21479300e-03 -7.00693671e-03 -3.11554410e-03 7.60735827e-04
      9.63323750e-03 1.64996386e-02 1.38029046e-02 9.64158867e-03
      2.09128088e-03 -6.72260625e-03 -5.03709586e-03 9.60001815e-03
      4.86489997e-04 1.91069895e-03 6.54884893e-03 4.83334856e-03
      -3.54122976e-03 -1.85796712e-03 3.08634341e-03 2.00417149e-03
      9.43392608e-03 1.54931210e-02 5.15870517e-04 6.18786365e-03
      2.83114146e-03 -4.72119870e-03 -1.82625221e-03 -3.68527393e-03
      -1.95299014e-02 9.13378876e-03 7.57276360e-03 5.37724746e-03
      7.69808749e-03 6.62352983e-03 -1.34382004e-04 -9.46360547e-03
      -1.79231633e-02 -3.54428939e-03 2.30032746e-02 2.76081227e-02
      6.68681646e-03 6.84348308e-03 5.50853368e-03 -6.29930152e-03
      -1.54481484e-02 -1.94495674e-02 -3.97603633e-03 2.12232638e-02
      2.10805386e-02 -1.19351351e-03 -9.94249596e-04 -3.42645193e-03
      -9.42226592e-03 -1.16322655e-02 -1.90186929e-02 -7.99965812e-04
      2.45744307e-02 2.60755699e-02 1.83981145e-03 1.96959684e-03
      -1.74285786e-03 -4.69452422e-03 -2.08167620e-02 -1.97105575e-02
      3.02788848e-03 2.24816613e-02 3.23293395e-02 6.65096845e-03
      5.07302815e-03 2.10014358e-03 -9.35079996e-03 -2.13738102e-02
      -1.79782640e-02 6.30943757e-03 2.80970559e-02 2.94350274e-02
      4.00158390e-03 3.79617256e-03 2.18390068e-03 -1.37160905e-02
      -2.62235533e-02 -8.75259191e-03 1.26814551e-03 2.30575725e-02
      2.01779231e-02 3.04909935e-03 2.14076368e-03 2.72776175e-04
      -7.43388571e-03 -2.08098367e-02 -1.61978975e-02 9.24672931e-03
      2.51980256e-02 1.65533014e-02 2.66783056e-03 -1.04503136e-03
      -4.20224015e-03 -1.70128029e-02 -1.97792929e-02 -8.27441365e-03
      1.37635833e-02 3.04069240e-02 2.01182384e-02 4.03695181e-03
      2.96086166e-03 2.72956141e-03 -1.64962634e-02 -2.94388440e-02
      -1.18120909e-02 1.84799749e-02 2.51059607e-02 1.37410564e-02
      6.84724515e-03 3.20265093e-03 2.12560539e-04 -2.41314862e-02
      -2.84156315e-02 -3.83781013e-03 2.08398011e-02 2.78835986e-02
      2.54457332e-02 1.03622500e-03 -2.53281847e-04 -2.54088733e-03
      -2.10159048e-02 -2.27947142e-02 -8.04910494e-04 2.55665109e-02
      2.83848606e-02 2.45697852e-02 7.26436824e-03 4.65072691e-03
      -1.08834654e-02 -2.56434772e-02 -1.88689288e-02 1.23446248e-02
      -8.14636424e-03 -1.99708566e-02 -1.62028000e-02 5.09928446e-03
      1.02437064e-02 8.07313807e-03 1.41569246e-02 6.48056157e-03
      2.80120596e-03 -4.19898285e-03 -2.08977014e-02 -2.29244065e-02
      -5.72796585e-03 -2.35652411e-03 -1.69531861e-03 1.71419582e-03
      4.74596117e-03 7.36794481e-03 1.75250527e-02 -1.10454848e-02
      -1.91453286e-02 -9.14615486e-03 -7.12956162e-03 8.21782625e-04
      1.83585361e-02 2.96143629e-02 2.44868044e-02 2.37513036e-02
      -1.41140409e-02 -1.80874970e-02 -9.22690053e-03 -1.30637493e-02
      -1.20951766e-02 -5.49922697e-03 1.47395544e-02 2.30536852e-02
      -1.05077529e-03 -1.89195331e-02 -1.88478399e-02 -5.90729713e-03
      -5.52636012e-03 -5.78115648e-03 -8.10139813e-04 1.45776337e-03
      7.14653963e-03 -7.21399020e-03 -1.48686012e-02 -1.11895436e-02
      -8.43697111e-04 -4.21747239e-03 -6.80401595e-03 9.01082763e-04
      -1.82730285e-03 -1.10790148e-04 3.16272974e-02 2.75867060e-04
      -1.09134857e-02 -1.11949863e-02 -1.16235511e-02 -1.21984594e-02
      -1.26531692e-02 2.86253053e-03 3.44582722e-02 1.87686626e-02
      2.34797001e-02 -2.95690633e-03 -8.68589245e-03 -1.16463304e-02
      -1.02951778e-02 -8.55765492e-03 -6.85291225e-03 2.81757414e-02
      -9.03000496e-03 -9.75064840e-03 -7.16970442e-03 -1.44712580e-03
      -4.10829764e-03 -6.11617090e-03 -3.56551283e-03 -6.11268869e-03
      -1.15389349e-02 2.49485113e-03 1.74934380e-02 5.06900763e-03
      -2.45129853e-03 -6.01481553e-03 -5.91480499e-03 -1.06879305e-02
      -1.19549492e-02 -6.46043243e-03 1.77818891e-02 1.95297059e-02
      5.01306774e-03 -1.08760353e-02 -1.19366013e-02 -1.24923494e-02
      -1.15011781e-02 -1.05274273e-02 1.00416932e-02 1.48142111e-02
      2.03231666e-02 1.56763382e-02 -5.67724323e-03 -1.34052224e-02
      -1.15344506e-02 -1.90121960e-02 -1.53974015e-02 1.39556022e-03
      3.19600687e-03 1.98595040e-02 1.67565048e-02 -4.70505701e-03
      -5.80499740e-03 -7.84606766e-03 -1.20808911e-02 -1.37740364e-02
      -5.93183003e-03 -1.46290846e-03 1.66456215e-02 1.87460203e-02
      -9.27605759e-03 -9.44061205e-03 -9.13299620e-03 -8.71073827e-03
      -1.02139609e-02 -8.32152553e-03 1.97353982e-03 1.96049549e-02
      1.77646261e-02 -5.18728560e-03 -9.38443933e-03 -9.51595511e-03
      -1.36178043e-02 -2.09817477e-02 -1.06964353e-02 -6.79289130e-03
      1.42455194e-02 7.17113074e-03 -6.65836269e-03 -6.39538607e-03
      -7.32070720e-03 -4.65729786e-03 -9.31640062e-03 -1.24422172e-02
      -2.85304827e-03 1.64356008e-02 1.38067678e-02 -4.80294880e-03
      -6.02028612e-03 -4.97773243e-03 -2.46757013e-03 -5.22568356e-03
      -1.06759546e-02 -5.29471552e-03 1.61433965e-02 9.61260870e-03
      -3.33013455e-03 -1.67721440e-03 -2.65658880e-03 -2.97576073e-03
      -9.64102149e-03 -1.20586129e-02 -7.74841569e-03 1.22312550e-02
      -3.04988556e-04 -3.35168606e-03 -2.29614329e-06 1.10098522e-03
      3.68304411e-03 2.90066586e-04 -4.89466591e-03 5.81096672e-03
      1.14288135e-02 7.31442217e-03 -9.92788933e-03 -5.01998235e-03
      -5.20552043e-03 -9.85584036e-03 -7.09461328e-03 -1.06593058e-03
      1.81414292e-03 1.90787166e-02 4.71420400e-03 -7.61822052e-03
      -4.91509633e-03 -5.61009673e-03 -1.14401150e-02 -1.17695043e-02
      -1.47563852e-02 2.12908480e-02 2.92396601e-02 2.25764886e-02
      -8.83606449e-03 -8.01995583e-03 -1.35743804e-02 -1.94421522e-02
      -1.48233585e-02 -3.82983941e-03 1.29299555e-02 2.01634336e-02
      1.30540878e-02 -1.35587594e-02 -1.06190443e-02 -1.12019880e-02
      -1.91949308e-02 -1.68041401e-02 -1.01265032e-02 1.42794587e-02
      1.90844890e-02 1.18897753e-02 -1.15286727e-02 -7.91817345e-03
      -9.59699601e-03 -1.57012437e-02 -1.37424478e-02 -6.23893598e-03
      2.93200854e-02 3.04917265e-02 2.41774824e-02 -6.92346925e-03
      -8.08008015e-03 -1.87576916e-02 -2.42618751e-02 -1.84607469e-02
      2.33476702e-03 3.08281090e-02 3.00964285e-02 1.97573714e-02
      5.86762419e-03 -4.83983422e-05 -1.85225699e-02 -2.02255696e-02
      -1.05399229e-02 1.58212297e-02 9.13068373e-03 1.04488200e-02
      -3.85409337e-03 -1.40551599e-02 -5.88504924e-03 -1.56919230e-02
      -1.49812810e-02 -6.98306086e-03 1.40822108e-03 1.05271610e-02
      -1.48111815e-03 -2.06015501e-02 -6.35216804e-03 -3.34060541e-03
      -8.74624681e-03 -1.08627891e-02 1.93059572e-03 9.33492091e-03
      1.71108153e-02 -3.15242750e-03 -5.62734669e-03 -4.70982306e-03
      -1.26248449e-02 -1.43105090e-02 -8.00760183e-03 1.66534353e-02
      2.35821884e-02 2.34596096e-02 -4.71187243e-03 -7.32208882e-03
      -4.46929038e-03 -1.03695700e-02 -1.78783648e-02 -2.12580767e-02
      7.23004458e-04 2.11392362e-02 1.88537557e-02 -1.88913298e-04
      3.75827122e-03 3.40861990e-03 -4.89155715e-03 -8.40041135e-03
      -1.81039404e-02 -1.13735069e-02 1.07727963e-02 1.89239811e-02
      1.60428183e-03 2.78077414e-03 3.87560599e-03 1.30450819e-03
      -7.82298017e-03 -1.76517777e-02 -1.14233643e-02 7.23360293e-03
      2.44021993e-02 2.74821208e-03 -4.72024875e-03 -1.07619883e-02
      -1.06552066e-02 -1.28285037e-02 -1.87472776e-02 -7.38332886e-03
      2.16334537e-02 1.73795093e-02 1.82302110e-02 -4.03823610e-03
      -1.10254874e-02 -1.34963579e-02 -1.07576400e-02 -1.54466741e-02
      -1.30323861e-02 1.48141943e-02 1.36326691e-02 1.57465099e-03
      3.37723643e-03 2.01785821e-03 2.03616312e-03 -5.21696685e-03
      -1.90518294e-02 -1.37909995e-02 8.40080809e-03 1.07895825e-02
      1.10060163e-02 5.20651974e-03 -2.10688519e-03 -5.92951756e-03
      -4.05263761e-03 -1.42573100e-02 -1.44126005e-02 5.99947479e-03
      1.65691767e-02 2.01996993e-02 3.01312027e-03 -1.03665199e-02
      -1.05781890e-02 -7.11578596e-03 -1.51879499e-02 -9.87973250e-03
      4.53902315e-03 1.03019262e-02 2.33341232e-02 5.71544003e-03
      -4.25245613e-04 -1.02201086e-02 -1.00334408e-02 -1.90487225e-02
      -1.35698272e-02 -5.93112269e-03 1.36705348e-02 2.16754936e-02
      6.18824270e-03 -1.18238910e-03 -4.05212725e-03 -6.61263103e-03
      -1.38869155e-02 -1.65673718e-02 6.12616073e-03 1.17501244e-02
      2.74147876e-02 1.35473181e-02 2.35774810e-03 -4.23307763e-03
      -8.71757604e-03 -1.42927077e-02 -2.11674981e-02 7.12205051e-03
      -3.15710530e-03 2.32972465e-02 6.34952635e-03 2.80990568e-03
      -3.42418067e-03 -5.48733585e-03 -1.35142431e-02 -1.56674422e-02
      -1.40349977e-02 7.80886505e-04 2.41905116e-02 1.69707648e-02
      2.24389718e-03 2.50682293e-04 -6.21982012e-03 -7.53852306e-03
      -1.13416724e-02 -6.60351664e-03 1.26185454e-02 3.23499925e-02
      2.15654280e-02 3.45077226e-03 -1.01343822e-03 -8.89422838e-03
      -1.25995576e-02 -2.12798845e-02 -2.38130032e-03 1.25975655e-02
      1.91156231e-02 3.17937955e-02 5.32364240e-03 4.73376270e-03
      -7.04407645e-03 -1.04956729e-02 -1.30859744e-02 -1.83343468e-03
      -9.79396165e-04 1.65122226e-02 1.87675860e-02 3.74794094e-04
      1.19467406e-03 -2.59670638e-03 -9.32017807e-03 -8.30486603e-03
      -3.78539297e-03 3.23289959e-03 1.16715496e-02 9.98442527e-03
      -3.86046781e-03 1.89108323e-04 -3.12988437e-03 -9.06288251e-03
      -1.09487073e-02 -1.67567621e-03 7.58737000e-03 1.38262725e-02
      2.84306239e-02 5.00722695e-03 6.87050587e-03 1.33871799e-03
      -9.40924790e-03 -1.27785970e-02 -1.06890546e-02 -5.22665214e-03
      9.18246806e-03 9.24921129e-03 4.14795289e-03 1.13466224e-02
      5.05728740e-03 -6.20642677e-03 -1.07884090e-02 -1.72719695e-02
      1.65561326e-02 9.75783542e-03 9.29565262e-03 4.52069886e-04
      5.04470151e-03 8.32295627e-04 -9.66765359e-03 -8.44151899e-03
      -1.53358991e-03 5.34238014e-03 3.14830872e-03 -1.95528101e-03
      5.44292433e-03 1.24789290e-02 7.12686311e-03 -7.69928389e-04
      -7.59272324e-03 1.28124398e-03 -9.69577208e-03 -3.88092152e-03
      -4.91031632e-03 1.06754927e-02 1.98646449e-02 1.08963111e-02
      5.36575448e-03 -6.26842084e-04 -5.32576116e-03 -1.37542104e-02
      -1.44415693e-02 -1.41574368e-02 1.39912544e-02 2.07531657e-02
      1.69287287e-02 1.09671475e-02 7.91576225e-03 1.40927325e-03
      5.13210602e-04 -1.73494611e-02 -2.83513423e-02 3.13545717e-03
      1.82725657e-02 8.88662133e-03 5.56552038e-03 6.32093567e-03
      6.12839498e-03 8.34042579e-03 -2.54224595e-02 -2.98751425e-02
      9.43226926e-03 2.46813130e-02 1.66318230e-02 1.03945648e-02
      1.09455558e-02 1.19500384e-02 -1.52289933e-02 -2.30473075e-02
      -2.24143192e-02 2.02439222e-02 2.49419603e-02 1.92950498e-02
      1.02893906e-02 9.03294049e-03 1.42443809e-03 -1.52008235e-02
      -2.68799588e-02 -2.51074955e-02 2.52590533e-02 3.29686217e-02
      2.64777821e-02 1.38123846e-02 9.23903752e-03 8.00735317e-03
      2.34029256e-02 -2.10437225e-03 4.67048027e-04 -7.70906045e-04
      -1.21001818e-03 -5.09971380e-03 -2.18590721e-02 -1.50906295e-02
      8.95314664e-03 2.19278876e-02 5.75858494e-03 3.72427958e-03
      4.13505710e-04 3.34405527e-03 -4.74241981e-03 -1.57612357e-02
      -1.40113449e-02 1.10723767e-02 9.94745921e-03 2.90584913e-03
      5.12931729e-03 2.18776381e-03 4.70574619e-03 -8.61902081e-04
      -1.88732147e-02 -2.29811985e-02 2.44307006e-03 8.29416234e-03
      7.99130742e-03 8.33527558e-03 5.57056488e-03 7.34499376e-03
      4.20083199e-03 -1.39140040e-02 -2.18970813e-02 5.14881685e-03
      1.44052068e-02 6.38510520e-03 4.77523869e-03 -6.31366798e-04
      7.60759169e-04 -4.40177228e-03 -1.07527133e-02 -2.05913894e-02
      8.83958954e-03 8.09113868e-03 2.60579605e-02 6.60302304e-03
      -1.02613727e-03 -5.05548296e-03 -6.05630642e-03 -1.25259850e-02
      -2.06333399e-02 7.73835089e-03 3.66139458e-03 7.72424880e-03
      8.80072266e-03 2.76554143e-03 3.87489866e-03 2.34022178e-03
      -6.14135247e-03 -2.27138940e-02 3.09427106e-03 3.85051267e-03
      1.91763416e-02 8.62929877e-03 3.20506003e-03 6.76219957e-03
      -1.79850927e-03 -8.90313927e-03 -1.78449992e-02 7.53276190e-03
      1.01770842e-02 3.37032378e-02 8.62739980e-03 4.35973750e-03
      1.92234374e-03 -5.89680392e-03 -1.60955228e-02 -1.70427151e-02
      7.03104865e-03 9.16316267e-03 3.17326784e-02 1.67635940e-02
      6.20106934e-03 2.84991926e-03 -5.33778360e-03 -1.16936583e-02
      -1.88247077e-02 4.25465126e-03 7.14464998e-03 1.77309439e-02
      1.09646758e-02 1.21680237e-02 1.08398655e-02 2.33623618e-03
      -9.98944975e-03 -1.12487758e-02 1.52212451e-03 4.03321162e-03
      1.21341906e-02 1.43780317e-02 1.66553184e-02 1.44478325e-02
      6.84506213e-03 -4.07096557e-03 -1.28670875e-02 -4.26021079e-03
      6.14865357e-03 2.68259998e-02 2.24381443e-02 8.29332508e-03
      7.05679273e-03 2.67862109e-03 -6.28051162e-03 -1.15298536e-02
      -1.15183170e-03 5.01192315e-03 1.57686044e-02 2.40780301e-02
      1.37412800e-02 1.30966138e-02 6.62287092e-03 -6.87474431e-03
      -6.83682226e-03 -8.94245598e-03 -5.05207106e-03 8.18750262e-03
      1.57900453e-02 1.68913268e-02 1.98410004e-02 1.47509202e-02
      9.42995248e-04 -7.73733342e-03 -7.30013568e-03 -8.60957429e-03
      -5.20289131e-03 1.69120301e-02 2.00800896e-02 2.23368034e-02
      1.69085134e-02 1.68118905e-03 -4.83053038e-04 -1.40752001e-02
      -3.86091211e-04 3.23639414e-03 1.70723759e-02 1.64343901e-02
      1.78962201e-02 1.45696430e-02 -1.72603643e-03 -1.66953425e-03
      -5.99531503e-03 -7.63047580e-03 -8.38229433e-03 7.78727187e-03
      1.61438305e-02 2.27626581e-02 1.66414492e-02 5.80732198e-03
      1.22342864e-03 -1.14153568e-02 -8.71516392e-03 -6.89038122e-03
      1.24360705e-02 2.14585494e-02 2.25876588e-02 1.89346354e-02
      6.60963077e-03 3.97240324e-03 -1.53916255e-02 -8.14295188e-03
      -5.08621428e-03 1.21632917e-02 2.19131466e-02 2.46906802e-02
      2.04669684e-02 1.63494740e-02 6.86126435e-03 -1.49712004e-02
      -1.47093525e-02 -1.48357879e-02 3.92677821e-03 1.56043256e-02
      2.41910629e-02 1.67797804e-02 1.09887300e-02 4.38122638e-03
      -8.46480485e-03 -1.93162560e-02 -1.55544952e-02 -2.71107862e-03
      1.82208959e-02 2.31143069e-02 2.18888018e-02 1.52659407e-02
      1.27668250e-02 -1.77231268e-03 -1.44839222e-02 -6.56460226e-03
      1.15083661e-02 2.43036058e-02 2.51061786e-02 2.29704883e-02
      1.88268125e-02 2.19310448e-03 -1.13497749e-02 -1.50348376e-02
      -9.26020369e-03 4.79743630e-03 2.50116289e-02 2.64567547e-02
      2.35669538e-02 1.92277953e-02 1.54665522e-02 -9.20914672e-03
      -1.91285200e-02 -2.47139838e-02 -1.49141168e-02 1.87745597e-02
      2.38325261e-02 2.14118101e-02 1.35073056e-02 1.18232789e-02
      4.27492021e-04 -9.40678362e-03 -2.68164184e-02 -2.24795770e-02
      2.61066854e-02 3.17228548e-02 2.51051076e-02 1.83325205e-02
      1.36927236e-02 1.28506962e-02 -1.43060116e-02 -1.94321144e-02
      -4.37444961e-03 1.62385274e-02 2.22097728e-02 1.77899580e-02
      1.38530433e-02 1.61399040e-02 -7.29193026e-03 -6.95424993e-03
      -2.18696594e-02 -1.31548652e-02 1.69463102e-02 2.58995797e-02
      1.88266784e-02 1.46996062e-02 1.72285680e-02 1.20001833e-03
      -9.62375756e-03 4.96988243e-04 2.68509891e-03 1.23711384e-03
      2.74047488e-03 2.37308047e-03 -1.60322208e-02 -3.01751886e-02
      -3.13589722e-02 -1.29040126e-02 1.96231971e-03 5.55882091e-03
      3.54958372e-03 3.76137579e-03 4.76078596e-03 -1.47041893e-02
      -2.63958611e-02 -2.40582321e-02 2.00281832e-02 3.60975489e-02
      2.07654964e-02 4.04267712e-03 8.25971179e-03 4.27465001e-03
      -5.72475791e-03 -2.31327713e-02 -7.60478200e-03 1.93182342e-02
      2.35756189e-02 6.03517564e-03 2.58872099e-03 4.33737459e-03
      9.43677558e-04 -1.34925377e-02 -2.28034817e-02 1.45640280e-02
      -1.46610932e-02 2.72711529e-03 5.24650514e-03 3.47979087e-03
      3.91080510e-03 2.37249699e-03 -8.91087111e-03 -2.46214531e-02
      -2.78000217e-02 -1.97461899e-02 7.40350317e-03 4.78551257e-03
      2.61976779e-03 4.74368548e-03 1.81463070e-03 -4.05237824e-03
      -1.68477111e-02 -2.54344046e-02 2.44213715e-02 -2.12703855e-03
      -1.36350701e-03 2.15281476e-03 5.33896266e-04 6.72804134e-04
      -1.07960803e-02 -1.99048910e-02 2.02075522e-02 2.02075522e-02
      -2.97307153e-03 7.29750551e-04 1.70229026e-03 7.82317511e-05
      6.39351434e-04 -6.20774087e-03 -1.23103457e-02 2.02075522e-02
      -1.30259162e-02 3.49710393e-03 4.78008529e-03 5.34775155e-03
      4.18346375e-03 2.60419375e-03 -2.74335616e-03 -2.73185992e-03
      -1.97011661e-02 -2.61775889e-02 -3.55769927e-03 4.40011825e-03
      7.01808836e-03 4.41666367e-03 2.58565461e-03 -8.35015159e-03
      -1.05207274e-02 -2.86509022e-02 2.62193885e-02 -1.10005180e-03
      2.68401741e-03 2.87707127e-03 1.34725496e-03 -1.00435875e-03
      -2.57973047e-03 -4.13573533e-03 2.26258244e-02 1.76722128e-02
      -1.28707960e-02 7.44900783e-04 4.26989561e-03 1.80046563e-03
      -3.58261331e-03 -9.36349854e-03 -1.04726627e-02 1.76722128e-02
      -2.35319473e-02 -7.84612901e-04 5.49957715e-03 6.09503686e-03
      7.42680673e-03 5.48118260e-03 -4.50170739e-03 -1.06489519e-02
      -2.04849783e-02 -2.37933360e-02 -5.14740730e-03 6.58935821e-03
      7.08400179e-03 8.93092249e-03 8.21040384e-03 -1.47806399e-03
      -7.13589881e-03 -1.69318542e-02 2.32921671e-02 -6.45917049e-03
      3.45889176e-03 4.12215060e-03 9.21467226e-03 3.76530178e-03
      -8.73767771e-03 -8.18264857e-03 1.60206612e-02 2.38107033e-02
      -5.66134555e-03 4.14660946e-03 4.42063808e-03 5.94583480e-03
      5.19971270e-03 -3.99861997e-03 -3.23317014e-03 1.58255529e-02
      -2.56384574e-02 -8.27040151e-03 4.29445645e-03 6.26214128e-03
      8.27368721e-03 7.76259182e-03 5.43153845e-04 -8.38689040e-03
      -1.84060987e-02 -2.59980559e-02 -1.27460044e-02 2.66913860e-03
      7.57532101e-03 8.56890902e-03 8.73188023e-03 5.70059288e-03
      -9.39700473e-03 -2.33892705e-02 2.33357977e-02 -6.12799358e-03
      3.59576661e-03 3.46952607e-03 2.07010075e-03 5.28223906e-03
      -3.79393320e-03 -5.45385946e-03 1.57786515e-02 2.32506171e-02
      -6.34346437e-03 1.15011819e-03 4.47992561e-03 3.16818198e-03
      7.85725657e-03 4.98816138e-03 1.85942277e-03 1.57786515e-02
      -2.79868934e-02 -1.23215234e-02 2.95348233e-03 1.00665046e-02
      9.62942839e-03 9.44402162e-03 7.26476498e-03 -3.82559747e-03
      -2.13867072e-02 -3.38454358e-02 -1.86408162e-02 5.25194046e-04
      1.05510280e-02 1.18598929e-02 9.89375915e-03 8.28784890e-03
      3.43195908e-03 -2.44533662e-02 1.07991146e-02 -1.00667244e-02
      1.13087264e-03 5.91860898e-03 1.01972716e-02 1.40334675e-02
      1.87527500e-02 1.21838339e-02 6.66185096e-03 -7.22704595e-03
      -1.55641446e-02 1.49403745e-03 6.62556710e-03 1.88870411e-02
      1.66008249e-02 2.56414469e-02 3.47953588e-02 3.87780322e-03
      -1.90419517e-02 -1.32880667e-02 2.95724114e-03 1.56171862e-02
      1.86102539e-02 1.45116802e-02 1.15274610e-02 7.24979490e-03
      -1.86522435e-02 -1.01138465e-02 -2.05652751e-02 -3.96667328e-03
      1.48774246e-02 1.58830825e-02 1.27105080e-02 9.42068454e-03
      7.96846487e-03 -7.21056433e-03 -8.86974763e-03 -6.19773986e-03
      8.96132831e-03 1.49927698e-02 2.79706083e-02 2.03197952e-02
      2.35516261e-02 2.08519176e-02 -4.16377978e-03 -1.17831128e-02
      -1.58983171e-02 6.15246966e-03 1.45220393e-02 1.98091511e-02
      1.44422511e-02 1.17965294e-02 1.26369344e-02 -2.05477886e-03</_>
    <_>
      6.40935311e-03 -1.68050062e-02 -9.82599519e-03 -7.37919984e-03
      1.04188053e-02 -6.76428946e-03 -6.53193844e-03 8.71905184e-04
      1.65308900e-02 1.74266435e-02 -2.00705230e-02 -3.57031892e-03
      -3.87910148e-03 2.82414607e-03 -7.52175692e-03 4.44515795e-03
      1.44851794e-02 1.72593221e-02 6.50547026e-03 -5.04807290e-03
      -7.88406469e-03 -5.29870763e-03 -6.74537197e-03 -3.42382467e-03
      -7.01352675e-03 -3.43149831e-03 -1.86378462e-03 -2.65544327e-03
      -1.97888259e-03 -1.11555611e-03 -2.49161036e-04 2.92063225e-03
      2.31597363e-03 -9.00441129e-03 4.01572848e-04 -1.01297172e-02
      4.88270447e-03 -1.63977165e-02 -1.26018538e-03 -8.84393323e-03
      -7.39142345e-03 -9.68867447e-03 4.60935524e-03 5.44223655e-03
      1.55427400e-02 1.37027297e-02 -8.04630760e-03 -4.93305386e-04
      -1.06695835e-02 -9.92921460e-03 -8.72294884e-03 7.18517462e-03
      2.01287027e-02 1.80825070e-02 -1.46751935e-02 -1.72470068e-03
      4.75906441e-03 -6.32349867e-03 -2.44515529e-03 -5.07996976e-03
      -8.22009519e-03 -4.53701895e-03 -7.28160283e-03 -2.10359916e-02
      3.62054771e-03 5.21936500e-03 -2.86810310e-03 -5.55534009e-03
      -6.43107435e-03 4.12986893e-03 -1.36176555e-03 -8.56387336e-03
      1.01080826e-02 -6.87724026e-03 1.03305373e-03 -8.41158535e-03
      -1.24543868e-02 -1.64787155e-02 -9.83859040e-03 1.77663416e-02
      1.55946650e-02 9.26091801e-03 -1.01466915e-02 2.52481247e-03
      -1.08081056e-02 -7.04324944e-03 -1.41069293e-02 -1.07302153e-02
      1.24210203e-02 1.07623758e-02 -1.60991233e-02 -1.41923712e-03
      -1.29764841e-03 -5.57515165e-03 -1.45966839e-03 -1.22975158e-02
      -4.71385662e-03 -6.72770140e-04 -4.72439593e-03 -1.13200303e-02
      -7.39687448e-03 -7.17136776e-03 -9.47831850e-03 7.54622789e-03
      -9.54195578e-03 -4.12918394e-03 3.04255192e-03 3.55877168e-03
      9.22623929e-03 -2.06868686e-02 2.73695157e-04 -8.49154964e-03
      -3.77092441e-03 -9.25170723e-03 -9.45248641e-03 1.00847315e-02
      2.27324422e-02 1.59031525e-02 -1.19022978e-02 6.92347297e-04
      -7.95156416e-03 -7.77399866e-03 -1.66397095e-02 -1.42366458e-02
      -6.51772507e-03 7.10320286e-03 -3.01601621e-03 -1.14909243e-02
      -3.18425079e-03 -1.04323952e-02 4.15138341e-03 -3.62690957e-03
      3.06440226e-04 8.04693496e-04 1.01565775e-02 3.32301785e-03
      -1.86234750e-02 -5.72010316e-03 -8.98696575e-03 -2.31928614e-04
      -7.56056560e-03 -6.77051023e-03 -4.04540449e-03 2.25443710e-02
      2.51692701e-02 2.12090486e-03 9.82673932e-03 4.54586494e-04
      -2.14169780e-03 -3.34907020e-03 -1.52912298e-02 -1.55648207e-02
      7.01831235e-03 1.58964209e-02 4.84841038e-03 -1.13569926e-02
      -7.47946498e-04 -5.36084129e-03 -2.24779476e-03 -1.79207530e-02
      -1.57607496e-02 1.46199828e-02 -4.47993120e-03 -4.19635512e-03
      -1.27569816e-04 1.43641629e-03 7.08423276e-03 3.67491296e-03
      -4.44470672e-03 -1.99286407e-03 1.53182857e-02 -1.69302318e-02
      -1.85195077e-02 3.29189847e-04 1.19466139e-02 1.29439402e-02
      4.85948473e-03 -6.46406878e-03 -1.34448223e-02 -1.63719449e-02
      2.88584959e-02 1.27935437e-02 -4.08316497e-03 -1.27780472e-03
      -6.51528873e-03 -2.93687847e-03 -1.08809751e-02 -1.37061616e-02
      2.17554644e-02 3.14909592e-02 2.23841108e-02 1.51366126e-02
      6.32709404e-03 -1.05536974e-03 -2.61616986e-03 -1.30703924e-02
      -8.29421822e-03 1.61666665e-02 -1.01235313e-02 -1.41505301e-02
      4.55564773e-03 1.23081570e-02 7.80403754e-03 -7.26404088e-03
      -1.39040146e-02 -2.03856397e-02 -1.26784779e-02 -2.08899733e-02
      7.77969952e-04 5.39520523e-03 5.04688686e-03 3.83942924e-03
      -3.29592871e-03 -1.51829785e-02 -1.58135127e-02 -1.78714357e-02
      2.57426277e-02 3.98797165e-05 9.81539302e-03 2.21389739e-04
      8.44402239e-03 1.89248566e-03 -4.97632381e-03 -7.47301336e-03
      9.45047475e-03 2.24723797e-02 1.95540749e-02 2.73760851e-03
      -8.14049784e-03 5.32513205e-03 7.86653347e-03 7.44725985e-04
      -9.83656663e-03 9.16271098e-03 -1.58252921e-02 4.75464901e-03
      9.02468339e-03 5.36843715e-03 5.36448974e-03 5.36838546e-03
      -7.97786657e-03 -1.46321859e-02 -2.64012162e-02 -8.56526382e-03
      2.79015338e-04 6.45215018e-03 4.15289355e-03 3.59600387e-03
      7.32554495e-03 -1.09094055e-02 -1.24664214e-02 -2.94276644e-02
      5.65806264e-03 -1.64085589e-02 -1.73440333e-02 -7.90748373e-03
      -7.90179521e-03 -1.22454707e-02 -7.91626796e-03 5.60753932e-03
      1.87920444e-02 3.79267242e-03 -1.47845801e-02 -2.03709342e-02
      -9.02154390e-03 -3.46576469e-03 1.22943311e-04 -1.04054594e-02
      4.71828924e-03 9.27664433e-03 1.07753538e-02 -4.66633216e-03
      -2.51510437e-03 2.62639741e-03 7.07089342e-03 -1.36666151e-03
      -6.08121557e-03 2.02235095e-02 1.19677130e-02 -9.07478109e-03
      -1.84558257e-02 -1.81187652e-02 4.61013406e-04 1.09147094e-02
      -5.95528679e-03 -3.29472590e-04 1.65744107e-02 6.33632950e-03
      2.82463711e-03 8.13019346e-04 -1.14967674e-03 -1.19299453e-03
      4.25117323e-03 1.25944344e-02 -3.26735876e-03 3.35555436e-04
      -4.67521884e-03 -8.16860143e-03 4.35875216e-03 7.33466679e-03
      5.71911503e-03 2.50638905e-03 4.92216647e-03 6.43596752e-04
      -1.79021701e-03 1.73908207e-04 -1.20032495e-02 -1.22158369e-02
      -1.04154600e-02 5.35843661e-03 9.39851440e-03 1.00838011e-02
      4.15889267e-03 2.89807678e-03 -8.45512562e-03 -4.70174756e-03
      -2.84400745e-03 -4.35865344e-03 3.03581194e-03 1.42028183e-03
      7.03308359e-03 -5.10845287e-03 -1.87919883e-03 -6.12496911e-03
      -2.13795062e-03 3.41573195e-03 4.68581356e-03 -1.42346229e-03
      -7.76589150e-04 1.84102356e-03 3.45067447e-03 3.60061042e-03
      -1.24701997e-03 1.16768980e-03 -1.29759638e-03 5.39116748e-03
      3.87630891e-04 9.62233078e-03 3.08207143e-03 9.04863700e-04
      1.12965442e-02 2.50568322e-04 -4.29743808e-03 -1.65021308e-02
      -1.30948592e-02 9.55239311e-03 -2.68432149e-03 9.54644009e-03
      1.11499580e-03 -2.03085059e-04 -3.67282657e-03 -6.81921002e-03
      -2.22533345e-02 -1.25109432e-02 1.68572869e-02 3.85571178e-03
      8.54176097e-03 1.05964821e-02 8.71968549e-03 -2.82314373e-04
      8.53104144e-03 -1.51817231e-02 -5.16025629e-03 5.27417753e-03
      1.84314009e-02 1.18423216e-02 9.55465622e-03 1.78372636e-02
      1.01844398e-02 -1.95567179e-02 -3.30852121e-02 -1.55484444e-02
      1.04989996e-02 2.30948385e-02 1.94988493e-02 1.48746297e-02
      2.05953605e-02 9.89443064e-03 -1.11708231e-02 -4.45588306e-02
      -2.15129796e-02 1.26052964e-02 1.90655198e-02 1.92119852e-02
      1.65231787e-02 2.41776165e-02 8.77547078e-03 -1.19672539e-02
      -4.22335416e-02 -3.15948725e-02 2.09642574e-02 3.00463047e-02
      3.94080132e-02 3.17568220e-02 3.19124684e-02 3.77472420e-03
      -2.94960737e-02 -3.64642851e-02 -9.99461766e-03 1.90448221e-02
      2.95363832e-02 2.39535701e-02 9.24812444e-03 2.54824646e-02
      -3.37692723e-03 -2.91930977e-02 -3.42912711e-02 1.43138890e-03
      3.07663288e-02 3.85303088e-02 2.45958734e-02 9.97918565e-03
      2.00487860e-02 -1.62518956e-02 -2.80978289e-02 -4.88850176e-02
      -1.33584589e-02 2.87667755e-02 3.42235230e-02 3.51941139e-02
      2.66715866e-02 2.72763856e-02 4.22568992e-03 -2.14785188e-02
      -2.42063906e-02 1.43850932e-03 3.27157751e-02 3.85680571e-02
      2.64680572e-02 2.14533135e-02 1.88840311e-02 -1.84438351e-04
      -2.93745566e-02 -2.40319334e-02 1.05280057e-02 2.89290547e-02
      2.70463377e-02 -5.10659348e-03 -6.72195619e-03 -2.20146799e-03
      -2.70893537e-02 -5.81133319e-03 1.18461028e-02 2.61511505e-02
      2.98751276e-02 2.12714877e-02 5.67163760e-03 -1.09081315e-02
      -5.98374568e-03 -1.31662097e-02 -6.52565155e-03 -1.85755007e-02
      9.81769804e-03 2.84295920e-02 2.64027603e-02 7.82615319e-03
      9.28829703e-03 1.11997975e-02 1.84005522e-03 6.68805977e-03
      1.66152958e-02 2.93123275e-02 2.45810486e-02 1.82317533e-02
      8.47219024e-03 -7.02967821e-03 1.20877959e-02 5.99992741e-03
      -1.22794937e-02 7.50780851e-03 2.27186903e-02 1.00576719e-02
      6.22377219e-03 6.98839594e-03 -1.61673152e-03 -6.12430554e-03
      -2.00585816e-02 -8.98932479e-03 3.87028954e-03 5.19860676e-03
      2.59772060e-03 -4.96532861e-03 -2.97216844e-04 4.76686237e-03
      -2.18636659e-03 -1.11058867e-02 4.66583902e-03 1.63805578e-02
      1.83350258e-02 -8.06339318e-04 6.47474499e-03 -8.26036383e-04
      -2.09396961e-03 5.75445499e-03 3.74505087e-03 1.19621474e-02
      8.81526247e-03 1.76404358e-03 -2.13978961e-02 -1.27590429e-02
      -1.21112289e-02 1.55995274e-02 1.92721691e-02 1.62244998e-02
      1.16702188e-02 1.02457581e-02 2.42801644e-02 2.53052451e-02
      1.67893972e-02 1.72285009e-02 -5.37297642e-03 7.94226676e-03
      2.03941241e-02 -1.56126702e-02 -1.90607365e-02 -7.68508110e-03
      1.22869750e-02 1.55509850e-02 6.37400616e-03 8.05573829e-04
      5.54126548e-03 4.75997152e-03 -3.19097079e-02 -4.34323698e-02
      3.17701953e-03 1.76885780e-02 3.14688087e-02 2.22982150e-02
      5.98030223e-04 -2.23499816e-03 -1.43936379e-02 -2.73601227e-02
      -4.72463109e-02 -1.23350816e-02 2.92826146e-02 2.20814571e-02
      1.91094037e-02 3.09340027e-03 -1.05125713e-03 -2.15299316e-02
      -1.87662244e-02 -2.41884533e-02 2.12906674e-03 2.56756954e-02
      3.30171585e-02 2.13135350e-02 1.09602455e-02 1.10516427e-02
      4.69138985e-03 -2.07171049e-02 -4.10806313e-02 -1.49441874e-02
      3.51937823e-02 2.94437055e-02 3.02904267e-02 1.15665486e-02
